tree
version=v4
num_class=1
num_tree_per_iteration=1
label_index=0
max_feature_idx=14
objective=lambdarank
feature_names=all_session_actions_feature all_session_actions_feature_lag_1 all_session_actions_feature_lag_1_rolling_3_mean session_page_views_feature session_page_views_feature_lag_1 session_page_views_feature_lag_1_rolling_3_mean session_success_feature session_success_feature_lag_1 session_success_feature_lag_1_rolling_3_mean session_cart_feature session_cart_feature_lag_1 session_cart_feature_lag_1_rolling_3_mean session_cost_change_feature session_cost_change_feature_lag_1 session_cost_change_feature_lag_1_rolling_3_mean
feature_infos=[1:3042] [0:808] [0:597.66666666666663] [0.013888888888888888:1] [0:1] [0:1] [0:0.5] [0:1] [0:1] [0:0.88888888888888884] [0:1] [0:1] [0:30.250966832108212] [0:30.250966832108212] [0:15.125483416054106]
tree_sizes=3565 3592 3594 3608 3597 3587 3592 3596 3595 3567 3603 3601 3581 3595 3566 3588 3582 3624 3593 3594 3593 3610 3582 3606 3603 3606 3617 3618 3618 3623 3621 3625 3632 3594 3617 3633 3601 3604 3603 3595 3589 3580 3579 3600 3568 3601 3576 3585 3570 3594 3579 3602 3596 3589 3612 3588 3575 3594 3559 3557 3606 3594 3625 3622 3618 3612 3598 3617 3607 3639 3618 3627 3599 3571 3568 3570 3589 3598 3561 3596 3586 3582 3569 3610 3635 3598 3627 3584 3603 3567 3606 3563 3579 3562 3594 3587 3581 3589 3604 3574

Tree=0
num_leaves=31
num_cat=0
split_feature=0 0 1 0 1 3 3 0 3 0 0 1 4 0 2 12 1 14 4 13 1 1 2 8 0 8 2 1 3 13
split_gain=41.164 7.9849 7.34668 6.8404 4.08378 3.50312 2.63272 1.63633 2.94131 1.40011 1.00691 0.996004 1.22138 3.94082 0.812734 2.11422 1.95131 1.72268 1.64378 0.926603 1.17025 0.757975 0.720633 1.61748 1.98571 0.673674 3.42664 0.661766 0.71911 0.653341
threshold=22.500000000000004 8.5000000000000018 250.00000000000003 52.500000000000007 16.500000000000004 0.17521929824561405 0.14185110663983905 2.5000000000000004 0.42462121212121218 124.50000000000001 11.500000000000002 43.500000000000007 0.83503401360544227 31.500000000000004 42.416666666666679 1.3496712238417705 97.500000000000014 1.4827202352069688 0.72771403353927633 1.904286912481534 161.50000000000003 29.500000000000004 8.8333333333333339 0.054093567251461992 10.500000000000002 0.0063497822931785205 11.833333333333334 34.500000000000007 0.61930641821946175 1.1092842764332551
decision_type=2 2 2 2 2 2 2 2 2 2 2 2 2 2 2 8 2 2 2 2 2 2 2 2 2 2 2 2 2 2
left_child=1 2 4 6 7 -3 25 -1 -9 27 22 -8 -13 -14 -6 17 -17 19 -18 -16 -21 29 -7 -24 -25 -2 -27 28 -5 -11
right_child=3 5 -4 9 14 10 11 8 -10 21 -12 12 13 -15 15 16 18 -19 -20 20 -22 -23 23 24 -26 26 -28 -29 -30 -31
leaf_value=-0.00085880791563031425 -0.0002441493516262865 -0.00094156879173927564 -0.094436377194497906 0.0050701211114590307 -0.0020346128373108204 0.00041853231583702932 0.0023727430232098248 -0.0010040826343850463 0.0001197111464242887 0.0085405300166808782 0.00096959989096846776 9.2790930440009582e-05 -0.078482770510631239 0.001818797500356166 -0.0038494657620300587 -0.089717967483032665 -2.591808438563158e-09 -0.081748922950999392 -0.088126197377591198 -0.092912465648057524 -0.012929843096338572 0.002712558086182463 -0.0009339838172245801 -0.081134188088121478 0.0047531679281905834 0.0011137415078897202 -0.088064430635446556 0.0019379192416035665 0.0029403935999405472 0.018130081240471843
leaf_weight=29212.445065796914 1073.190985045745 4014.4907271317206 2.0915290354751042 1914.6227828576812 4215.6915587126423 5217.9603074790502 8657.5208078933501 9375.6394528804813 15363.589695697388 205.6527373547724 11566.795034539973 341.16333375123213 2.0987313250079742 5.6167395974334795 201.43283514358336 1.3336884039454151 2.5995504337770403 0.71869766293093462 0.66438064584508527 0.64789698319509548 1.5548128690570593 52.803677211108152 1013.4883278879279 1.3956155520863822 1.2996907010674477 5.6814858904690473 1.3291977019980548 252.27597510191845 499.83027721513645 19.440686361922417
leaf_count=1780783 63717 242532 300 99279 257838 306241 478191 567991 909823 10417 664655 19107 300 300 11800 200 200 100 100 100 100 2608 61405 200 100 400 200 13612 26617 602
internal_value=0 -0.000423531 -0.000728524 0.00260639 -0.000725167 0.000392635 0.00198744 -0.000605405 -0.000306183 0.00472659 0.000693526 0.00226719 -0.000352104 -0.0200245 -0.00218548 -0.00522928 -0.0387603 -0.00447489 -0.0179383 -0.00420216 -0.0364556 0.008104 0.0001813 -0.00103686 -0.0397189 -0.000345071 -0.0157941 0.00437463 0.00462923 0.00936875
internal_weight=0 80193.8 58378.4 13031.2 58376.3 21815.4 10086.6 53951.7 24739.2 2944.63 17800.9 9006.4 348.879 7.71547 4424.64 208.952 4.59762 204.354 3.26393 203.636 2.20271 277.897 6234.14 1016.18 2.69531 1080.2 7.01068 2666.73 2414.45 225.093
internal_count=5519818 4804468 3529335 715350 3529035 1275133 562215 3258597 1477814 153135 1032601 497898 19707 600 270438 12600 500 12100 300 12000 200 13627 367946 61705 300 64317 600 139508 125896 11019
is_linear=0
shrinkage=0.05


Tree=1
num_leaves=31
num_cat=0
split_feature=0 1 4 0 1 2 1 3 1 0 3 1 3 2 0 1 4 1 3 0 3 0 2 3 4 4 1 5 4 1
split_gain=323.473 160.691 116.946 401.798 1024.08 284.546 267.12 142.453 114.276 87.4564 72.7055 70.8558 120.113 63.0245 55.9324 84.9535 79.8628 75.954 52.6933 41.3023 39.7963 34.7217 32.2061 29.9636 26.827 73.9151 30.3984 22.7383 21.7925 21.7092
threshold=11.500000000000002 16.500000000000004 0.93440860215053767 2.5000000000000004 2.5000000000000004 6.5833333333333348 2.5000000000000004 0.42462121212121218 11.500000000000002 8.5000000000000018 0.16760299625468167 8.5000000000000018 0.42462121212121218 8.1666666666666696 22.500000000000004 22.500000000000004 0.17694497153700192 22.500000000000004 0.21103238866396765 51.500000000000007 0.14379699248120303 8.5000000000000018 25.166666666666668 0.42462121212121218 0.46225071225071229 0.059714795008912663 8.5000000000000018 0.62979207277452909 0.21767001114827203 250.00000000000003
decision_type=2 2 2 2 2 2 2 2 2 2 2 2 2 2 2 2 2 2 2 2 2 2 2 2 2 2 2 2 2 2
left_child=1 2 7 4 5 -4 23 21 10 11 -2 12 -8 -14 15 16 20 -16 -18 22 -10 -1 -19 -5 25 -9 27 -26 -12 -3
right_child=8 29 3 6 -6 -7 9 24 14 -11 28 -13 13 -15 17 -17 18 19 -20 -21 -22 -23 -24 -25 26 -27 -28 -29 -30 -31
leaf_value=-0.0040188955617402209 -0.00030648191089297237 -0.0061839492387366253 -0.021678912104650061 0.00027299778557459585 0.0064141528726590711 -0.00060892409531863466 -0.0019095359203684999 0.00071156183250980533 -0.023405414802460941 0.0021605522615700083 0.0032695393532152237 0.0011132278156925338 -0.028184482495105048 -0.0039271068286792048 0.0053985038516918618 0.00014812624102255209 -0.0046137123250963698 -0.013274798109363942 -0.024664582623458955 0.0027303170844133044 0.0039417630725373546 -0.00038515972233670644 -0.0012218935930638245 0.0049780106391770808 -0.0045093194046893223 0.0049103741275664872 0.0027301486270024846 0.0015587403951380148 0.0052309602038652326 -0.095162333113867903
leaf_weight=21180.29461642867 11660.556074220396 14779.671768322325 9235.3245809214859 4408.0247956626117 6955.928936288401 1938.7613849727204 899.35282881875173 62506.752618170009 160.17376898374641 1203.9606608792965 37714.774948556238 671.4465977656655 1582.5285494420386 322.30548648367403 4395.7689568747883 3017.441043662111 456.96594328177162 1374.76389390236 1158.0019632091862 1300.370844261517 785.08703665758367 9532.9802209824556 928.6026645427919 14564.242946637591 5812.8220975032309 12593.090277974814 3443.2270972635597 2102.1247188174748 22675.858013026678 6.8582834606058887
leaf_count=482781 225244 310346 440441 85911 155108 46308 18401 1381881 4800 21703 666348 14101 66804 7300 73130 63413 10506 40020 46310 25023 14001 180716 19509 239221 148619 232526 75410 55309 368328 300
internal_value=0 -0.00123962 -0.000775841 -0.00304698 -0.00864732 -0.0180232 0.00124587 3.40221e-05 0.0025152 -0.0094532 0.0033081 -0.0134762 -0.0169696 -0.02408 -0.00169259 -0.00553588 -0.0122349 0.00098714 -0.0189911 -0.00439376 -0.000692197 -0.00289103 -0.00841567 0.00388485 0.00107312 0.00141564 -0.00119162 -0.00289771 0.00400603 -0.00622522
internal_weight=0 173740 158953 41781.9 18130 11174.1 23651.9 117171 85628.4 4679.59 72051.2 3475.63 2804.19 1904.83 13577.2 5577.67 2560.23 7999.51 1614.97 3603.74 945.261 30713.3 2303.37 18972.3 86458 75099.8 11358.2 7914.95 60390.6 14786.5
internal_count=5519818 3963186 3652540 1095298 641857 486749 453441 2557242 1556632 128309 1259920 106606 92505 74104 296712 139030 75617 157682 56816 84552 18801 663497 59529 325132 1893745 1614407 279338 203928 1034676 310646
is_linear=0
shrinkage=0.05


Tree=2
num_leaves=31
num_cat=0
split_feature=0 1 1 3 3 5 2 0 0 3 1 0 0 0 5 2 4 2 0 4 0 8 12 4 14 4 4 1 5 5
split_gain=218.808 149.717 46.0848 42.6589 36.7694 31.2529 62.5487 33.369 24.7584 24.9426 17.6097 17.3456 15.0908 10.448 10.3629 39.9753 24.0239 10.3311 9.96033 9.93812 8.20745 7.71682 14.2139 7.55101 7.10825 7.10317 45.236 32.1933 26.456 10.4688
threshold=16.500000000000004 16.500000000000004 22.500000000000004 0.4160256410256411 0.1181455633100698 0.98058069381598811 1.5833333333333337 2.5000000000000004 8.5000000000000018 0.18257575757575759 250.00000000000003 51.500000000000007 23.500000000000004 11.500000000000002 0.6002136752136753 1.1666666666666667 0.88348416289592768 6.416666666666667 2.5000000000000004 0.99122807017543868 250.00000000000003 0.01664292497625831 0.99389037503247979 0.49827586206896557 0.57720274793678528 0.43364779874213844 0.16542288557213933 8.5000000000000018 0.20843596059113303 0.062589031339031362
decision_type=2 2 2 2 2 2 2 2 2 2 2 2 2 2 2 2 2 2 2 2 2 2 8 2 2 2 2 2 2 2
left_child=1 3 4 8 -2 13 7 24 17 -10 -3 21 -6 14 16 18 23 25 19 -16 -14 -4 -23 -5 -7 26 -1 28 -28 -29
right_child=2 10 11 5 12 6 -8 -9 9 -11 -12 -13 20 -15 15 -17 -18 -19 -20 -21 -22 22 -24 -25 -26 -27 27 29 -30 -31
leaf_value=-0.0028938292410561773 -0.00096302880555887015 -0.0052176844656458676 -0.0031183764796587727 0.00012586420855944277 0.0023335169501838629 -0.0069714182882828855 -3.3229279821288404e-05 -0.0030554827433819653 -0.0025380071821504806 0.00074695024209691426 -0.091097270260094315 0.0033670423045857167 0.0041031160557115894 0.0017650589694460908 0.00040595398384188564 -0.00011462594288941294 0.0018559706750150189 -0.00029163036143679854 -0.003872098515323507 -0.012210660458632604 0.020821541474505219 -0.0095885085948182874 -0.093630416539537076 -0.0014012539454542352 -0.015516586632870833 -0.0015579541879295145 -0.02770979411516114 -0.093366525088466545 -0.0093674000466534135 -0.0012863821426388332
leaf_weight=15295.251311062515 5092.9725810939563 16956.477836504549 4144.4565024102922 78406.533101927809 17963.102195498999 302.30303383321734 6585.3443026434979 1329.7491512100678 9242.002715701703 15419.997292179381 5.9712560558691612 1276.1262970907555 32243.366987282614 10481.787420690292 185.89798754712683 21152.726383187342 20877.676153105043 3799.2329667786835 1353.425141461601 973.22409963005339 73.577917341841385 21.164223964209672 6.5999902803450814 9026.5812658684736 1248.3061344969028 5495.8149822045816 410.05862157681258 3.1090974844992152 377.6199468888517 430.12660028407117
leaf_count=342153 97219 361459 87734 1556401 317589 14705 146813 21103 178219 278340 300 25023 539473 181433 3100 421536 404237 77513 21200 45607 1005 400 200 185027 63704 109813 17305 100 11804 9303
internal_value=0 -0.000735753 0.00265359 -0.000357599 0.00308531 6.0801e-05 -0.00272128 -0.00886694 -0.00161697 -0.000484077 -0.00524792 -0.00173412 0.00349537 0.000245658 0.000124984 -0.000822872 0.000332085 -0.00269943 -0.00678548 -0.0101872 0.00414118 -0.00329438 -0.0295666 -3.17952e-05 -0.0138506 -0.00311501 -0.00363313 -0.0128949 -0.0189163 -0.00194719
internal_weight=0 219359 60821.4 202397 55373 151924 9465.7 2880.36 50473.2 24662 16962.4 5448.35 50280 142458 131976 23665.3 108311 25811.2 2512.55 1159.12 32316.9 4172.22 27.7642 87433.1 1550.61 22012 16516.2 1220.91 787.679 433.236
internal_count=5519818 4451175 1068643 4089416 955286 3064866 246325 99512 1024550 456559 361759 113357 858067 2818541 2637108 491443 2145665 567991 69907 48707 540478 88334 600 1741428 78409 490478 380665 38512 29109 9403
is_linear=0
shrinkage=0.05


Tree=3
num_leaves=31
num_cat=0
split_feature=0 1 1 3 3 0 1 0 3 0 0 2 0 1 2 9 0 5 1 5 4 5 5 2 4 2 2 4 14 12
split_gain=207.252 131.539 60.1271 34.5576 31.8144 24.3628 14.8174 14.7687 15.5241 13.8636 13.1264 8.07123 7.04946 6.89868 7.3574 11.0795 6.10905 15.4785 10.8336 18.7604 12.8285 10.349 7.20585 8.85397 6.78737 11.3811 6.40165 21.8961 7.28025 6.21358
threshold=16.500000000000004 16.500000000000004 22.500000000000004 0.1181455633100698 0.4160256410256411 51.500000000000007 250.00000000000003 8.5000000000000018 0.18257575757575759 23.500000000000004 11.500000000000002 6.416666666666667 250.00000000000003 52.500000000000007 16.833333333333339 0.70714285714285718 2.5000000000000004 0.967204301075269 2.5000000000000004 0.30363756613756615 0.84561213434452875 0.33333333333333343 0.59944684944684956 1.5833333333333337 0.46225071225071229 64.250000000000014 1.5833333333333337 0.99122807017543868 0.42693977333722705 4.0056784694053933
decision_type=2 2 2 2 2 2 2 2 2 2 2 2 2 2 2 2 2 2 2 2 2 2 2 2 2 2 2 2 2 10
left_child=1 4 3 -2 7 -4 13 -1 -9 11 16 -5 -11 14 -3 -16 17 18 19 -6 24 26 -18 -24 -20 -26 27 28 -21 -30
right_child=2 6 5 9 10 -7 -8 8 -10 12 -12 -13 -14 -15 15 -17 22 -19 20 21 -22 -23 23 -25 25 -27 -28 -29 29 -31
leaf_value=-0.0022653734880025635 -0.00086130012248869829 -0.0053080769192691956 -0.0043229847455596906 0.0029018853575279277 -0.00029756938079265443 0.003660109118395303 -0.087527082184757979 -0.0022066554437765811 0.00039094409754092613 0.0040513465037680142 0.0016480494468433398 0.00031825470289044351 0.019740653134676808 -0.0075636268338214437 -0.0027879659557444782 -0.097993186694926793 0.00055754043390160283 0.0018633032998646307 0.00021005176030198166 -0.016331611692432416 0.00199996675687958 -0.0019018163934902113 -0.0030503656507170672 -5.2202244060521175e-05 -0.0018898709811892582 -0.094958458895473205 -0.0027894870944545746 -0.0018890679845719128 -0.056763558523713592 -0.00064083072172277291
leaf_weight=26428.005256613716 5087.4404191089852 10022.312626826519 4124.961830944143 14566.80595197904 34123.735886039634 1243.9077745147224 5.4353114180266848 9102.7805848916178 15624.389647190284 32181.276527484413 11137.596735055966 3814.4267680909834 71.755623125180136 2204.2158417673199 4390.8550797931675 3.0580308614298692 45656.413878534251 6893.64007965778 11061.655244667636 336.94480902062787 7433.6100255112688 17896.968923712469 3200.0964684105711 10682.749165648653 5444.6230773863499 3.2868543202057472 746.14081703382544 455.88962559812353 20.55228040684597 6.4888740233145645
leaf_count=567991 97219 220745 88334 248972 731190 25023 300 178219 278340 539473 189236 68617 1005 49404 91210 100 841825 172415 201920 11900 129006 393039 51603 201419 112412 100 17601 10400 700 100
internal_value=0 -0.000707182 0.00258007 0.00306698 -0.000362316 -0.00247339 -0.00498548 -0.0014436 -0.000565307 0.00346167 -5.68632e-06 0.00236574 0.00408625 -0.00495849 -0.00456017 -0.00285423 -0.000133627 -0.000407155 -0.000609034 -0.00100411 0.000275183 -0.00224287 0.000254222 -0.000743301 -0.00050142 -0.00194602 -0.00614054 -0.00919022 -0.0183349 -0.0432962
internal_weight=0 222881 61090.6 55721.7 206256 5368.87 16625.9 51155.2 24727.2 50634.3 155100 18381.2 32253 16620.4 14416.2 4393.91 143963 84423.5 77529.9 53586.7 23943.2 19463 59539.3 13882.8 16509.6 5447.91 1566.02 819.876 363.986 27.0412
internal_count=5519818 4451175 1068643 955286 4089416 113357 361759 1024550 456559 858067 3064866 317589 540478 361459 312055 91310 2875630 1780783 1608368 1164930 443438 433740 1094847 253022 314432 112512 40701 23100 12700 800
is_linear=0
shrinkage=0.05


Tree=4
num_leaves=31
num_cat=0
split_feature=0 1 1 3 0 3 0 0 1 0 5 2 3 4 1 4 0 2 0 0 1 2 9 1 2 8 12 0 9 2
split_gain=192.586 122.459 57.6635 30.3205 29.4688 25.1251 13.279 13.2166 12.7828 12.0693 11.9704 9.58759 9.29689 7.25588 8.46633 22.5096 10.2326 8.43113 8.20235 6.83515 6.17433 6.81534 8.32041 6.37454 6.15028 5.79881 10.9131 5.24317 4.96962 8.35996
threshold=16.500000000000004 16.500000000000004 22.500000000000004 0.1181455633100698 51.500000000000007 0.4160256410256411 3.5000000000000004 23.500000000000004 250.00000000000003 10.500000000000002 0.9784722222222223 6.416666666666667 0.18257575757575759 0.46225071225071229 2.5000000000000004 0.84561213434452875 2.5000000000000004 64.250000000000014 2.5000000000000004 124.50000000000001 52.500000000000007 16.833333333333339 0.70714285714285718 23.500000000000004 8.5833333333333339 0.014822134387351782 0.99389037503247979 11.500000000000002 0.098729877418402015 13.583333333333334
decision_type=2 2 2 2 2 2 2 2 2 2 2 2 2 2 2 2 2 2 2 2 2 2 2 2 2 2 8 2 2 2
left_child=1 5 3 -2 25 9 10 11 20 -1 13 -5 -11 -7 18 17 24 -16 -15 -9 21 23 -23 -3 -17 -4 -27 -8 -25 -30
right_child=2 8 4 7 -6 6 27 19 -10 12 -12 -13 -14 14 15 16 -18 -19 -20 -21 -22 22 -24 28 -26 26 -28 -29 29 -31
leaf_value=-0.0018608815084300739 -0.00072126888169776965 -0.0040328263226257375 -0.0043690687115494611 0.0028538559616522784 0.0042946041587883553 -0.00018647100601798419 0.00033802988674078806 0.0038457031428880185 -0.084395793400386943 -0.0016535875374917488 0.0014598947802448086 3.9195019897284002e-05 0.0007361091523469857 -0.0021704909254593382 -0.0023982203651847439 0.0027561041282341816 -0.0030606366386724494 -0.094351158588100822 0.00047311556339970728 0.0090068426792577413 -0.007308975551712284 -0.0027438672922495675 -0.09455815328781414 -0.0060751889448200334 -0.0012814142445574887 -0.012853968189612411 -0.094236186963474466 0.0015487161118740451 -0.019832921832102404 -0.00496523109708578
leaf_weight=33881.204713442334 5060.3421833298926 5466.7074493768159 4053.2697078532365 14603.775656006357 1231.9837731651205 55679.344710937934 45181.760725453176 31438.847471019981 5.0481225479743435 6811.9005328382191 8104.0249868004757 3816.0878618458519 10111.269386862812 17801.72637366355 6347.4458916815056 6343.9559946332593 1075.8271376824996 2.4938193326815954 3513.2347009385703 654.86290400178405 2161.2117592152208 4361.2456758416374 2.4689380391500881 3983.2134073545458 1107.9296994978795 24.021992612164471 4.9719619806855908 11149.551377422729 181.01730000786483 197.93410418683197
leaf_count=712704 97219 121827 87634 248972 25023 1115327 832218 529960 300 133616 191115 68617 178230 395541 130416 111106 23103 100 58104 10518 49404 91210 100 90118 18600 500 200 189236 4300 4500
internal_value=0 -0.000679211 0.00249283 0.00296865 -0.00248303 -0.000350262 -3.62958e-05 0.0033383 -0.00484388 -0.00131622 -0.000382228 0.00227074 -0.00022579 -0.000544721 -0.00109586 -0.000180519 0.00149773 -0.00243433 -0.00173476 0.00395101 -0.00481933 -0.00444021 -0.00279581 -0.00517027 0.00215581 -0.00452845 -0.0268096 0.000577659 -0.00659573 -0.0120672
internal_weight=0 223471 60888.2 55573.9 5314.25 207112 156307 50513.6 16358.8 50804.4 99976 18419.9 16923.2 91872 36192.6 14877.7 8527.71 6349.94 21315 32093.7 16353.8 14192.6 4363.71 9828.87 7451.89 4082.26 28.994 56331.3 4362.16 378.951
internal_count=5519818 4451175 1068643 955286 113357 4089416 3064866 858067 361759 1024550 2043412 317589 311846 1852297 736970 283325 152809 130516 453645 540478 361459 312055 91310 220745 129706 88334 700 1021454 98918 8800
is_linear=0
shrinkage=0.05


Tree=5
num_leaves=31
num_cat=0
split_feature=0 1 1 0 3 3 0 0 0 1 3 2 5 4 4 1 0 0 2 0 2 4 14 1 2 14 5 0 2 3
split_gain=177.874 112.601 54.755 35.6885 26.9712 21.4445 14.6421 12.9551 12.4746 11.2413 9.17277 9.12194 7.2852 7.47954 6.25946 23.0667 14.4839 7.4524 7.28667 6.06508 5.70814 5.35279 5.98334 4.72101 6.4893 5.75131 9.04463 14.7359 8.11463 4.79209
threshold=16.500000000000004 16.500000000000004 22.500000000000004 51.500000000000007 0.1181455633100698 0.4160256410256411 10.500000000000002 3.5000000000000004 23.500000000000004 250.00000000000003 0.18257575757575759 6.8333333333333348 0.9784722222222223 0.46225071225071229 0.84561213434452875 2.5000000000000004 2.5000000000000004 2.5000000000000004 64.250000000000014 250.00000000000003 8.5833333333333339 0.11237373737373739 0.58960569180564948 34.500000000000007 16.583333333333339 0.48750841567285991 0.71438399921372076 5.5000000000000009 18.833333333333339 0.12414383561643837
decision_type=2 2 2 2 2 2 2 2 2 2 2 2 2 2 2 2 2 2 2 2 2 2 2 2 2 2 2 2 2 2
left_child=1 5 4 -4 -2 6 -1 12 11 21 -8 -6 13 -7 18 17 20 -16 -15 -10 -17 -3 23 24 -23 29 -27 28 -28 -25
right_child=2 9 3 -5 8 7 10 -9 19 -11 -12 -13 -14 14 15 16 -18 -19 -20 -21 -22 22 -24 25 -26 26 27 -29 -30 -31
leaf_value=-0.0018381817971294314 -0.00062114030303877773 -0.0017236053881220467 -0.0047363363726960761 0.0050057351692689113 0.0027274945966581578 -0.00015512776369764101 -0.0014595122469330684 0.00055592666503390857 0.0037790877517403648 -0.081649091585173972 0.00091645257245874718 -7.577838718736605e-05 0.0010412547262663057 -0.002224496921657168 -0.0021467777141133985 0.0027341848763764989 -0.0040296833057775804 0.00048719990700035509 -0.090685897248916375 0.018465478344630852 -0.001155226172388798 -0.0056065955376428493 -0.0038621915091022977 -0.023919475379002426 0.00042826446983371103 -0.01024639037812454 -0.096592744157240729 -0.09690624465124642 -0.0047103530599278557 -0.0056926572914498645
leaf_weight=33625.019657978934 5042.3978212303336 1418.8987941286177 4041.259385193378 1225.0562902186648 14762.789536308381 55936.510772228852 6774.6713290779153 56429.077501122985 31879.871984064506 4.7422344236983909 10145.710358700919 3612.0274490383454 8156.782084471517 8675.940173511568 15599.021964344895 6566.6306136384374 1071.8756029613432 3243.8592434622697 2.3285103095695368 70.45389983424684 1101.5874309918436 4882.4950673940475 6862.9984703370719 36.863555016811006 490.17557991022477 724.29621713212691 2.7683523097075584 7.9151047877967349 18.204951262916438 1657.2805516542867
leaf_count=712704 97219 31008 88334 25023 252272 1115327 133616 1021454 539473 300 178230 65317 191115 178222 352536 111106 23103 53303 100 1005 18600 112525 152721 900 10001 16500 100 300 500 36904
internal_value=0 -0.00065177 0.00240178 -0.00247012 0.00286517 -0.000338919 -0.00123451 -5.01908e-05 0.00321449 -0.00467888 -3.48487e-05 0.00217644 -0.000391009 -0.000517722 -0.00107706 -0.00070858 0.00141446 -0.00169333 -0.00224823 0.00381147 0.00217545 -0.00465621 -0.0049396 -0.00588516 -0.00505601 -0.00770542 -0.0113406 -0.038776 -0.0168383 -0.00608926
internal_weight=0 223436 60633.9 5266.32 55367.5 207329 50545.4 156784 50325.1 16106.6 16920.4 18374.8 100355 92197.8 36261.2 27583 8740.09 18842.9 8678.27 31950.3 7668.22 16101.9 14683 7820 5372.67 2447.33 753.185 28.8884 20.9733 1694.14
internal_count=5519818 4451175 1068643 113357 955286 4089416 1024550 3064866 858067 361759 311846 317589 2043412 1852297 736970 558648 152809 405839 178322 540478 129706 361459 330451 177730 122526 55204 17400 900 600 37804
is_linear=0
shrinkage=0.05


Tree=6
num_leaves=31
num_cat=0
split_feature=0 1 1 0 3 3 0 0 0 1 3 2 0 4 2 1 4 4 0 2 14 1 14 1 2 8 3 12 13 0
split_gain=166.032 107.149 51.3162 44.0986 25.7195 18.4029 11.4388 10.9482 10.1151 9.99616 6.43874 6.31339 6.00608 5.69984 5.44032 6.58794 15.0654 15.0855 11.1009 5.22588 5.14703 6.19393 5.0164 4.65362 10.3829 5.08644 4.49837 15.4599 4.48464 4.45349
threshold=16.500000000000004 16.500000000000004 22.500000000000004 51.500000000000007 0.1181455633100698 0.35329985652797707 11.500000000000002 3.5000000000000004 22.500000000000004 250.00000000000003 0.18257575757575759 6.416666666666667 124.50000000000001 0.11237373737373739 7.8333333333333348 2.5000000000000004 0.88348416289592768 0.49827586206896557 2.5000000000000004 12.833333333333334 2.5041641782857647 4.5000000000000009 0.58960569180564948 44.500000000000007 28.833333333333339 0.010811126694717158 0.14185110663983905 0.85080385645241197 1.1092842764332551 2.5000000000000004
decision_type=2 2 2 2 2 2 2 2 2 2 2 2 2 2 2 2 2 2 2 2 2 2 2 2 2 2 2 8 2 2
left_child=1 5 4 23 -2 6 -1 14 11 13 -8 -6 -10 -3 15 29 17 -17 -18 -9 -19 -22 -15 24 -4 -25 27 -13 -14 -7
right_child=2 9 3 -5 8 7 10 19 12 -11 -12 26 28 22 -16 16 18 20 -20 -21 21 -23 -24 25 -26 -27 -28 -29 -30 -31
leaf_value=-0.001739294529329558 -0.00063839445635664824 -0.0015337294587545809 -0.0047865719918645019 0.0058040279691292081 0.002589200579986651 -0.00073145671621141527 -0.0012637332788348289 0.00053425122446883026 0.0035097470112506277 -0.079202286818145784 0.0011203501878528086 0.0010495289606965638 0.0072834265041327581 -0.0057307059250552624 -0.0016205170935112479 0.00052812213727925666 0.0026184886088550727 -0.0026775167004200028 -0.0026729336992948605 -0.0015310508403290279 -0.095291333193162242 -0.0034350802575334443 -0.0038674022717347387 -0.0070744714285701843 0.0055714137321363176 -0.041211095967209545 0.00030273585976329798 -0.094152763296171171 0.024294781494321363 0.00042702094062479611
leaf_weight=31525.028704147233 5020.5661582563334 1415.7134354199516 2403.3590895111265 1250.575930541454 12697.879618909297 56373.760714625969 4954.2158672800288 60246.005072010565 33469.077422821079 4.4869234919897272 6611.3360426920117 17.875859419116754 606.57058792447788 7708.0989247853868 8497.5972796555725 10784.284791409969 8228.7925851161126 5260.5354591773648 1126.9278990104795 3226.9571394261729 3.30735059082508 4.1230923291295767 6797.6096309266286 1328.3849808318191 269.02121096203336 11.002585940528659 3325.6835316571523 5.6003107419237486 41.386082461918704 9727.4199702090118
leaf_count=666891 97219 31008 53624 25023 217766 1247037 98412 1107874 568767 300 116218 301 10016 177730 155314 190818 138508 112512 25203 56609 100 100 152721 29508 4902 300 60515 200 502 173820
internal_value=0 -0.000631309 0.00232376 -0.00239393 0.00277363 -0.000326645 -0.00124587 -8.43534e-05 0.00311512 -0.00458301 9.9105e-05 0.00207986 0.00360205 -0.00456198 -0.000410332 -0.000297953 0.000386324 -0.000543169 0.00198112 0.000429252 -0.00273625 -0.044321 -0.00485753 -0.00494946 -0.00374386 -0.00735489 0.000148778 -0.0216613 0.00836997 -0.000560976
internal_weight=0 222496 60447 5262.34 55184.6 206570 43090.6 163480 50164.1 15925.9 11565.6 16047 34117 15921.4 100007 91509.2 25408 16052.3 9355.72 63473 5267.97 7.43044 14505.7 4011.77 2672.38 1339.39 3349.16 23.4762 647.957 66101.2
internal_count=5519818 4451175 1068643 113357 955286 4089416 881521 3207895 858067 361759 214630 278782 579285 361459 2043412 1888098 467241 303530 163711 1164483 112712 200 330451 88334 58526 29808 61016 501 10518 1420857
is_linear=0
shrinkage=0.05


Tree=7
num_leaves=31
num_cat=0
split_feature=0 1 1 0 3 3 0 0 0 1 2 2 0 4 2 3 5 4 4 1 0 0 12 12 1 2 2 1 5 5
split_gain=155.749 99.0902 48.0903 49.121 24.4996 16.5211 14.5283 9.72716 9.0562 8.99156 7.7268 5.99498 5.51745 5.21754 5.17969 5.13272 4.77186 5.3028 9.14101 19.1303 12.7191 8.05005 4.69898 4.23275 4.13277 8.94016 4.42177 10.2525 9.358 7.39384
threshold=16.500000000000004 16.500000000000004 22.500000000000004 51.500000000000007 0.1181455633100698 0.35329985652797707 3.5000000000000004 11.500000000000002 22.500000000000004 250.00000000000003 7.8333333333333348 12.833333333333334 250.00000000000003 0.11237373737373739 6.416666666666667 0.18257575757575759 0.9784722222222223 0.49827586206896557 0.84561213434452875 2.5000000000000004 2.5000000000000004 2.5000000000000004 4.0056784694053933 1.6590294657335549 52.500000000000007 23.166666666666668 27.166666666666668 74.500000000000014 0.78787878787878818 0.060606060606060629
decision_type=2 2 2 2 2 2 2 2 2 2 2 2 2 2 2 2 2 2 2 2 2 2 8 8 2 2 2 2 2 2
left_child=1 5 4 -4 -2 7 10 -1 14 13 16 -8 -10 -3 -6 -9 17 -7 -19 21 -21 -20 -13 -18 25 -15 27 -26 -29 -28
right_child=2 9 3 -5 8 6 11 15 12 -11 -12 22 -14 24 -16 -17 23 18 19 20 -22 -23 -24 -25 26 -27 29 28 -30 -31
leaf_value=-0.0016455957226233072 -0.00064405000901540362 -0.0015102665808923957 -0.005052934964154464 0.006167202579197382 0.0025067992406953591 -0.00013715061910143204 0.00061236167041659286 -0.0011711577312627046 0.0034582409993546732 -0.077006244881130712 -0.0019099303747110562 -0.0016516113124302675 0.017537618958209943 -0.0048400266031457563 0.00029382763801470951 0.00095848522091323207 0.00081365910248741157 -0.0025405884107223826 -0.0019303045839951284 0.0024167859057933208 -0.0039939090824529329 0.00099776327672090881 0.065945549401104739 0.046472190545467751 -0.0093613885402495413 -0.0006521088505996571 -0.047706360049931562 -0.073178089135946242 -0.0011537971030679036 -0.0051104858144755778
leaf_weight=31512.53954455629 5003.9846379673254 1413.1183456079452 3984.0609451388882 1291.7334709486458 12663.645759109466 52470.878311998182 60462.573994107574 4935.018726276292 33927.27119621617 4.2663372598472042 8481.2265238303808 3229.6114929767791 69.727349567372585 10896.974640942644 3341.9990228902752 6630.6435279621801 7885.3476276600559 7076.8746919386031 13780.133789917396 6402.2201363458589 880.08154990451294 2829.2894870673772 2.5729551007971159 5.0792373469739678 509.01322122372221 1443.1161406965693 10.257659794064237 12.158526783343406 7.1690517732640719 1493.1582701645093
leaf_count=666891 97219 31008 88334 25023 217766 1056722 1107874 98412 578280 300 155314 56509 1005 252243 61016 116218 186115 150317 319232 108606 19903 47003 100 200 12101 30004 300 400 200 35203
internal_value=0 -0.000611093 0.00225424 -0.00230578 0.0026916 -0.000319299 -8.97879e-05 -0.00119042 0.00302541 -0.00442888 -0.000466295 0.000500207 0.00348712 -0.00440927 0.00204473 4.97757e-05 -0.000332234 -0.000443374 -0.000962216 -0.000494693 0.00164204 -0.00143153 -0.0015978 0.00084305 -0.00469431 -0.00435027 -0.00678388 -0.0107186 -0.0464626 -0.00540111
internal_weight=0 222373 60282.4 5275.79 55006.6 206584 163506 43078.2 50002.6 15789.2 99811.1 63694.8 33997 15785 16005.6 11565.7 91329.9 83439.5 30968.6 23891.7 7282.3 16609.4 3232.18 7890.43 14371.8 12340.1 2031.76 528.341 19.3276 1503.42
internal_count=5519818 4451175 1068643 113357 955286 4089416 3207895 881521 858067 361759 2043412 1164483 579285 361459 278782 214630 1888098 1701783 645061 494744 128509 366235 56609 186315 330451 282247 48204 12701 600 35503
is_linear=0
shrinkage=0.05


Tree=8
num_leaves=31
num_cat=0
split_feature=0 1 1 0 3 2 3 0 0 0 1 4 0 2 3 5 4 11 9 1 4 4 0 14 12 0 8 12 6 14
split_gain=148.114 91.4475 43.2101 53.9037 20.8925 14.7397 14.0793 15.6511 8.56047 8.31118 8.15665 5.26026 5.23147 4.74312 4.3683 4.35607 8.62464 4.94082 4.1258 4.52863 12.6982 19.5008 10.8601 6.52261 9.37122 4.97731 4.03123 9.44654 3.89911 3.87273
threshold=16.500000000000004 16.500000000000004 22.500000000000004 51.500000000000007 0.1181455633100698 8.1666666666666696 0.35329985652797707 3.5000000000000004 11.500000000000002 22.500000000000004 250.00000000000003 0.11237373737373739 250.00000000000003 6.416666666666667 0.18257575757575759 0.71438399921372076 0.3047162859248343 0.11290149552344676 0.32176470588235301 2.5000000000000004 0.88348416289592768 0.49827586206896557 2.5000000000000004 1.4827202352069688 1.0907525625179955 2.5000000000000004 0.014822134387351782 0.99389037503247979 0.43181818181818188 0.58960569180564948
decision_type=2 2 2 2 2 2 2 2 2 2 2 2 2 2 2 2 2 2 2 2 2 2 2 2 10 2 2 8 2 2
left_child=1 5 4 15 -2 6 8 18 -1 13 11 -3 -11 -6 -10 26 -17 -18 19 25 21 -21 -22 -23 -25 -8 -4 -28 29 -13
right_child=2 10 3 -5 9 -7 7 -9 14 12 -12 28 -14 -15 -16 16 17 -19 -20 20 22 23 -24 24 -26 -27 27 -29 -30 -31
leaf_value=-0.0014853028635649708 -0.00045987718954535064 -0.0013381494509384251 -0.0044560010573174427 0.0065121579244009995 0.0024284658939403569 -0.0016614246286541423 -0.00071986373539187527 0.00068651015889211603 -0.00097863178204889135 0.0033408822884717216 -0.075029533754649713 -0.0053236688585730756 0.017083232263779363 0.00030932878706007422 0.0010892997103113956 -0.097483608853587145 -0.0091351396140556904 -0.052966267411272583 -0.002775685949228768 0.00059720936563137416 0.002331129977980751 -0.003063773008268717 -0.0030384819875155645 -0.012024068680096067 -0.095012063071390207 0.00052827048757917827 -0.01028798452109838 -0.089334636521856026 0.073119365849644069 -0.0036768560797032918
leaf_weight=28244.904440647573 5014.5515732227504 1410.463876302354 3650.556619285373 1351.7003470798518 12634.111797592574 18532.885080742155 55661.501889793682 57190.137772711518 4508.446382622089 33823.21128078179 4.0716298468178129 7571.0196458202554 69.395610225270502 3338.1655491760903 5890.1886682519689 2.8580780802294603 269.92609631712548 6.5863340930081895 1744.4879967862216 10680.267887836701 8227.6397759765532 5044.7542379660008 1063.3431488529895 13.213905645650813 4.5811380557715884 9325.798034423322 21.507923468947414 4.5853957408107808 1.6161708352155972 6755.4234641569201
leaf_count=606986 97219 31008 81333 25023 217766 337737 1236537 1050366 90411 578280 300 177630 1005 61016 102816 100 6001 200 34602 190019 138708 109312 24303 300 200 167119 500 200 100 152721
internal_value=0 -0.000596751 0.00219988 -0.00210798 0.00261652 -0.000316229 -0.000183337 3.72881e-05 -0.00103376 0.00292589 -0.00426988 -0.00425158 0.00336902 0.00198557 0.000192725 -0.00505333 -0.0110723 -0.0101792 -0.00036732 -0.000320649 0.00025074 -0.000614361 0.00171658 -0.00317037 -0.0333884 -0.000540754 -0.00459598 -0.0241789 -0.00453838 -0.00454714
internal_weight=0 221875 60187.2 5307.72 54879.4 206132 187599 148956 38643.5 49864.9 15742.6 15738.5 33892.6 15972.3 10398.6 3956.02 279.371 276.512 91765.6 90021.1 25033.8 15742.8 9290.98 5062.55 17.795 64987.3 3676.65 26.0933 14328.1 14326.4
internal_count=5519818 4451175 1068643 113357 955286 4089416 3751679 2951466 800213 858067 361759 361459 579285 278782 193227 88334 6301 6201 1901100 1866498 462842 299831 163011 109812 500 1403656 82033 700 330451 330351
is_linear=0
shrinkage=0.05


Tree=9
num_leaves=31
num_cat=0
split_feature=0 1 1 0 3 2 3 0 0 1 0 4 0 2 4 6 8 3 5 4 11 14 13 1 2 2 1 12 4 5
split_gain=138.598 84.6754 43.3298 50.4588 19.8598 16.6535 12.4942 17.1659 8.40594 7.44765 7.26199 5.25278 4.96511 4.76326 4.63448 6.69135 13.5826 4.25306 3.86454 6.7764 6.19743 3.74452 4.63344 4.6008 5.36872 4.10279 10.5141 7.04413 6.96716 14.1551
threshold=16.500000000000004 16.500000000000004 22.500000000000004 51.500000000000007 0.1181455633100698 8.1666666666666696 0.35329985652797707 3.5000000000000004 22.500000000000004 250.00000000000003 11.500000000000002 0.11237373737373739 250.00000000000003 6.416666666666667 0.059714795008912663 0.097619047619047633 0.0050893550893550904 0.18257575757575759 0.71438399921372076 0.3047162859248343 0.11290149552344676 0.38251126215958736 0.11147242272808101 44.500000000000007 28.833333333333339 24.583333333333339 45.500000000000007 0.86464196552649353 0.35329985652797707 0.38888888888888901
decision_type=2 2 2 2 2 2 2 2 2 2 2 2 2 2 2 2 2 2 2 2 2 2 2 2 2 2 2 8 2 2
left_child=1 5 4 18 -2 6 10 -8 13 11 -1 -3 -10 -6 15 -7 -17 -12 21 -20 -21 22 -4 24 -23 28 27 -27 29 -25
right_child=2 9 3 -5 8 14 7 -9 12 -11 17 -13 -14 -15 -16 16 -18 -19 19 20 -22 23 -24 25 -26 26 -28 -29 -30 -31
leaf_value=-0.0013857806909310338 -0.00045430458120109679 -0.0011973131077111449 -0.00082538008617046162 0.0060645620750776749 0.0023487814859081144 -0.0031025973084494473 -0.00038320658107302106 0.00072074118348178782 0.0032696667590663996 -0.073241165741462486 -0.00099772793046811869 -0.0043945872924093521 0.016683028728435259 0.00022370961968879019 -0.0013322196122203761 -0.010075265924521496 -0.097388889604629783 0.0010437506613017267 -0.0937063724382831 -0.008830132815883341 -0.058024847495729108 -0.0033341567873267108 -0.0097858906150126643 -0.014802499848397764 0.0047851903841270573 -0.095476244137052441 -0.004026093600384981 -5.8991916957187285e-09 -0.0075435788807935687 -0.076539349455713709
leaf_weight=28160.707909638382 5002.214933921292 1412.047510333301 189.22172600141494 1375.8783398710802 12606.666710167454 3838.597497865645 91619.756757205629 57197.048468561828 33736.09335164541 3.896453155524795 4496.2896493092703 14233.206574948039 69.132558187935501 3334.3666715810541 14650.138529874705 21.836200309917334 5.5954161477275184 5897.6237870368641 2.438813821412622 270.36154724884545 6.5572536059189579 1646.7029827318911 607.30856976090581 45.417189294705167 232.31907839293126 5.278785879723725 727.14961810247041 3.0469472119584688 193.32269853667822 11.670416565611957
leaf_count=606986 97219 31008 4506 25023 217766 76208 1901100 1050366 578280 300 90411 330451 1005 61016 260929 400 200 102816 100 6001 200 36914 14106 1100 4102 200 16205 100 4400 400
internal_value=0 -0.000577588 0.00213031 -0.00217911 0.0025488 -0.000308089 -0.000166728 4.10906e-05 0.00285077 -0.00412323 -0.000968885 -0.00410602 0.0032971 0.00190428 -0.00173858 -0.00327844 -0.0278852 0.00016063 -0.00505728 -0.0107258 -0.00999503 -0.00462478 -0.00765725 -0.00378167 -0.00233029 -0.00654787 -0.00466579 -0.060535 -0.0120757 -0.0274234
internal_weight=0 221537 60065.1 5316.67 54748.5 205888 187371 148817 49746.3 15649.2 38554.6 15645.3 33805.2 15941 18516.2 3866.03 27.4316 10393.9 3940.8 279.358 276.919 3661.44 796.53 2864.91 1879.02 985.886 735.475 8.32573 250.41 57.0876
internal_count=5519818 4451175 1068643 113357 955286 4089416 3751679 2951466 858067 361759 800213 361459 579285 278782 337737 76808 600 193227 88334 6301 6201 82033 18612 63421 41016 22405 16505 300 5900 1500
is_linear=0
shrinkage=0.05


Tree=10
num_leaves=31
num_cat=0
split_feature=0 1 1 0 2 3 3 0 0 0 1 4 6 8 0 1 2 5 9 5 1 3 2 14 4 4 1 0 1 0
split_gain=130.999 78.6867 43.2512 46.3585 19.5357 18.1365 10.9154 17.1102 8.21915 7.4713 6.83829 5.26527 5.92321 10.2147 4.741 4.60141 8.14353 10.7574 7.30292 4.58259 4.28678 4.18032 3.99437 3.97271 3.85381 12.6747 16.7941 11.4878 6.68595 6.56944
threshold=16.500000000000004 16.500000000000004 22.500000000000004 51.500000000000007 8.1666666666666696 0.1181455633100698 0.35329985652797707 3.5000000000000004 22.500000000000004 11.500000000000002 250.00000000000003 0.059714795008912663 0.097619047619047633 0.0050893550893550904 250.00000000000003 52.500000000000007 18.833333333333339 0.99679487179487192 0.70714285714285718 0.9784722222222223 28.500000000000004 0.18257575757575759 6.416666666666667 2.5041641782857647 0.49827586206896557 0.84561213434452875 2.5000000000000004 2.5000000000000004 3.5000000000000004 2.5000000000000004
decision_type=2 2 2 2 2 2 2 2 2 2 2 2 2 2 2 2 2 2 2 2 2 2 2 2 2 2 2 2 2 2
left_child=1 4 5 -4 6 -2 9 19 22 -1 15 12 -6 -14 -10 16 -3 18 20 24 -18 -11 -7 -17 -8 28 29 -28 -26 -27
right_child=2 10 3 -5 11 8 7 -9 14 21 -12 -13 13 -15 -16 23 17 -19 -20 -21 -22 -23 -24 -25 25 26 27 -29 -30 -31
leaf_value=-0.0013257840400480161 -0.00038160845082655948 -0.004321005519277419 -0.0049966944472799053 0.0056771175031879607 -0.0033493893914295762 0.0022512372339338819 -0.00022737279769157755 0.0007211777362523355 0.0031956389453538718 -0.00090655903247954253 -0.071618513536224115 -0.0014224924825397593 -0.011952008954212006 -0.093428361279306635 0.016323162861606382 -0.0062468631150501153 0.0015084844748586273 -0.098510565953596987 -0.090295265888356763 0.00077043249175224519 -0.0024873221261987174 0.001118590568698649 0.00030320849839094908 0.074131170427492468 -0.00094109414370405556 -0.0017056175616317244 0.0023388501416579583 -0.0037868526153779572 -0.0040597078159231963 0.00093809421225243535
leaf_weight=28008.293987201614 4989.859689323217 10330.190218167423 3933.8366288702528 1372.0590296552109 3801.2600353124726 12584.654879445399 52431.341283065995 57397.654935752347 33668.622709311734 4484.018036059686 3.7369998502108492 14634.963276818598 19.239909138530496 4.8081841545645139 68.918027295032516 2039.9246477360139 962.64328311209101 2.8509348374791434 2.3056815990712485 7905.9964382815815 2217.1684733685106 5902.5596550126793 3327.1827920765936 1.5384346414357413 2908.1274444221344 13855.585678261152 6464.7028770884499 868.13964924300672 4201.7064924694423 2829.7646313629375
leaf_count=606986 97219 244947 88334 25023 76208 217766 1062823 1050366 578280 90411 300 260929 400 200 1005 49304 19200 101 100 186615 47707 102816 61016 100 60009 321433 110106 19903 93008 47203
internal_value=0 -0.000561673 0.00207334 -0.00223654 -0.00030236 0.00249186 -0.000149376 4.44951e-05 0.00278065 -0.000901043 -0.00398996 -0.00185421 -0.00350588 -0.0282424 0.00322246 -0.00397372 -0.00363951 -0.00142913 -0.00134215 -0.000380146 -0.00127765 0.000244308 0.0018439 -0.00618629 -0.000489009 -0.000929703 -0.000380765 0.00161362 -0.0027841 -0.00125726
internal_weight=0 221279 59945.1 5305.9 205718 54639.2 187258 148863 49649.4 38394.9 15560.4 18460.3 3825.31 24.0481 33737.5 15556.6 13515.2 3184.97 3182.12 91465.4 3179.81 10386.6 15911.8 2041.46 83559.4 31128 24018.2 7332.84 7109.83 16685.4
internal_count=5519818 4451175 1068643 113357 4089416 955286 3751679 2951466 858067 800213 361759 337737 76808 600 579285 361459 312055 67108 67007 1901100 66907 193227 278782 49404 1714485 651662 498645 130009 153017 368636
is_linear=0
shrinkage=0.05


Tree=11
num_leaves=31
num_cat=0
split_feature=0 2 1 0 3 1 0 3 0 0 3 1 1 5 14 4 4 1 0 1 0 2 14 1 9 0 2 3 2 1
split_gain=125.872 78.7395 40.707 42.7123 16.1961 15.6862 9.81151 12.7549 11.5554 7.99998 6.42549 6.1896 5.47407 5.03104 4.92907 4.77335 13.1857 15.466 10.1874 9.30518 5.79132 5.12952 4.87811 4.69408 4.77952 4.52745 4.32948 7.11434 8.38595 4.20524
threshold=16.500000000000004 8.1666666666666696 22.500000000000004 51.500000000000007 0.12571839080459773 23.500000000000004 11.500000000000002 0.3603278688524591 3.5000000000000004 22.500000000000004 0.18257575757575759 250.00000000000003 16.500000000000004 0.9784722222222223 0.5647284801598994 0.49827586206896557 0.84561213434452875 2.5000000000000004 2.5000000000000004 3.5000000000000004 2.5000000000000004 7.8333333333333348 2.5041641782857647 12.500000000000002 0.56038647342995185 250.00000000000003 11.583333333333334 0.14185110663983905 36.833333333333336 8.5000000000000018
decision_type=2 2 2 2 2 2 2 2 2 2 2 2 2 2 2 2 2 2 2 2 2 2 2 2 2 2 2 2 2 2
left_child=1 6 4 -4 -2 14 7 -1 12 26 -8 -7 13 15 -3 -9 19 20 -19 21 -18 -17 -21 -12 -25 -11 -6 28 -28 -10
right_child=2 5 3 -5 9 11 10 8 29 25 23 -13 -14 -15 -16 16 17 18 -20 22 -22 -23 -24 24 -26 -27 27 -29 -30 -31
leaf_value=-0.0012584270766639002 -0.00017666301793111314 -0.0030573705825605612 -0.0048210175994888062 0.0054425086615516542 0.0020654826957084943 -0.0044771856826293114 -0.00084079290877975125 -0.00020628725212359017 0.00042141739722052659 0.0031376696741083213 0.0014324781310191192 -0.070141171717999592 -0.0051464219757020278 0.00081276938583589803 -0.0015463097367998306 -0.00078163964327049762 -0.0016923467508735337 0.0021679793434918777 -0.0036173788974921007 -0.004336848059825215 0.00079076657457025047 0.073280795927722867 -0.046908352220136729 -0.0034983499235087842 0.078331107905118574 0.015983070347988276 -0.09210968385413397 -0.00046895114110425437 -0.0044466874643398534 0.0022633406883998089
leaf_weight=28082.038262016111 5333.9163616708174 8552.9657912311231 3907.9568187873228 1368.702804630957 14404.490890401503 9662.7131606367184 4495.3851569265098 52369.145200909188 43014.072575142578 33256.57459491519 16681.654306848723 3.5901229809824136 607.00130679970607 8030.9749903882912 14625.334163304506 2916.6592418990622 13832.817092851008 6458.4405251116696 862.55147566218511 4147.5596839748614 2828.2428917200741 2.3397479224950066 6.7399769364856175 554.81835512409452 1.7902089203707863 68.737702635080495 4.6179542683530581 1471.0569734491146 6.6662336299195886 3339.3272198548511
leaf_count=610187 103220 174839 88334 25023 252277 224931 90911 1062823 796222 572279 288255 300 14302 186615 273621 59909 321433 110106 19903 92808 47203 100 200 11400 100 1005 200 26204 101 65007
internal_value=0 -0.000550581 0.00203469 -0.00215878 0.00244036 -0.00280955 -0.000156413 -0.000286836 -8.9718e-05 0.00272401 0.000842735 -0.00450157 -0.000413885 -0.000382475 -0.0021039 -0.000497537 -0.000988676 -0.000429148 0.00148635 -0.00288576 -0.00127083 -0.000722274 -0.00440592 0.00128176 -0.00323516 0.00316416 0.0018007 -0.000772329 -0.040322 0.000554111
internal_weight=0 221076 59822.7 5276.66 54546.1 32844.6 188232 166498 138416 49212.1 21733.6 9666.3 92062.5 91455.5 23178.3 83424.5 31055.4 23982.1 7320.99 7073.3 16661.1 2919 4154.3 17238.3 556.609 33325.3 15886.8 1482.34 11.2842 46353.4
internal_count=5519818 4451175 1068643 113357 955286 673691 3777484 3386818 2776631 852066 390666 225231 1915402 1901100 448460 1714485 651662 498645 130009 153017 368636 60009 93008 299755 11500 573284 278782 26505 301 861229
is_linear=0
shrinkage=0.05


Tree=12
num_leaves=31
num_cat=0
split_feature=0 2 1 0 3 1 3 0 0 0 1 4 1 6 8 12 3 8 3 5 1 5 12 5 0 2 5 0 8 3
split_gain=120.499 75.8337 39.8317 40.6015 14.6164 14.1679 8.51559 18.5105 7.95169 5.93685 5.78288 5.49673 5.00888 4.97085 8.76924 4.74003 4.35857 5.24434 6.69494 4.80216 6.1305 5.94422 4.94064 4.27397 4.18265 4.02488 3.967 3.59486 8.5234 3.57127
threshold=16.500000000000004 8.1666666666666696 22.500000000000004 51.500000000000007 0.1181455633100698 19.500000000000004 0.35329985652797707 3.5000000000000004 29.500000000000004 11.500000000000002 250.00000000000003 0.046536796536796543 16.500000000000004 0.097619047619047633 0.0050893550893550904 0.87376485415017868 0.47879832184596949 0.01664292497625831 0.23132664437012265 0.71438399921372076 119.50000000000001 0.73350225225225241 0.97326241418490389 0.52837858567264928 250.00000000000003 11.583333333333334 0.72928921568627458 4.5000000000000009 0.098611111111111122 0.18257575757575759
decision_type=2 2 2 2 2 2 2 2 2 2 2 2 2 2 2 8 2 2 2 2 2 2 8 2 2 2 2 2 2 2
left_child=1 6 4 16 -2 11 9 12 25 15 -7 13 -8 -3 -15 23 17 19 -19 -4 21 22 26 -1 -10 -6 -21 -13 -29 -11
right_child=2 5 3 -5 8 10 7 -9 24 29 -12 27 -14 14 -16 -17 -18 18 -20 20 -22 -23 -24 -25 -26 -27 -28 28 -30 -31
leaf_value=-0.0019771774333503436 -0.00019495894634033873 -0.0035154322912812107 -0.0028359979890698701 0.0052379517039537506 0.0022801309187365968 -0.0040918318611119211 -0.00039238176618788676 0.00072039408146269582 0.003317673991438657 -0.00085928816633048209 -0.068794585958484797 -0.0022551612212591875 -0.004966504924399465 -0.010872873255785377 -0.089387747996572439 -0.0003564624943758708 -0.0069424204603422942 -0.08545575136855528 -0.0023561368227983459 -0.093968426224477763 -0.094998507538894106 -0.0073832149534798375 -0.0020972227909482693 0.00050052695867869302 0.015684569970080761 0.00022713681354611105 -0.026979345425072528 -0.00075482924631541538 -0.094562055573083989 0.0010120630571815081
leaf_weight=15531.508892502578 4959.5930815899119 3889.3707077453437 2315.7639864811208 1370.4649264624313 24725.125631328701 12182.914959543676 91314.25919431886 57669.816950495631 22098.63330600231 4486.0825847629749 3.4543120428279499 8824.392471913161 602.44976251746994 16.315506734419618 4.5475234681507564 10520.915891921584 1448.7907899525308 4.4329330937471223 5.3476269547827542 5.0068076760508085 2.2490739275235674 100.07846788479947 4.9336929582059392 1960.1530509283184 68.582884211427881 2642.5111713126389 3.9563381839543581 7836.8996418739262 2.4222244031261644 5905.7951654748467
leaf_count=342553 97219 79208 52921 25023 430030 285144 1901100 1057668 380224 90911 300 164916 14302 400 200 229328 32412 200 100 200 100 2201 100 38306 1005 46808 100 143423 100 103316
internal_value=0 -0.00053917 0.00199183 -0.00216284 0.00239293 -0.00275912 -0.000152309 1.82027e-05 0.00265204 -0.000816456 -0.00411017 -0.00195887 -0.000422362 -0.003646 -0.0279868 -0.0011951 -0.00476979 -0.00348069 -0.0400201 -0.00333375 -0.0132513 -0.0116382 -0.0422807 -0.00169952 0.00335594 0.0020819 -0.0643994 -0.00156298 -0.000783814 0.000204217
internal_weight=0 220751 59755.5 5261.02 54494.4 32760.3 187991 149587 49534.9 38404.5 12186.4 20573.9 91916.7 3910.23 20.863 28012.6 3890.56 2441.77 9.78056 2431.99 116.224 113.975 13.8968 17491.7 22167.2 27367.6 8.96315 16663.7 7839.32 10391.9
internal_count=5519818 4451175 1068643 113357 955286 673691 3777484 2973070 858067 804414 285444 388247 1915402 79808 600 610187 88334 55922 300 55622 2701 2601 400 380859 381229 476838 300 308439 143523 194227
is_linear=0
shrinkage=0.05


Tree=13
num_leaves=31
num_cat=0
split_feature=0 2 1 0 1 3 0 0 3 0 4 1 3 1 1 1 6 8 3 0 5 5 0 4 4 5 1 4 4 1
split_gain=114.58 73.0075 38.777 38.0024 13.4552 12.539 8.14614 7.9697 10.601 11.5078 6.25913 5.37033 5.16663 6.57679 4.74079 4.6073 4.50924 7.78788 4.41919 4.81397 4.16564 4.87206 4.16201 4.07704 5.41847 3.92256 3.87638 3.59745 16.1354 13.5503
threshold=16.500000000000004 8.1666666666666696 22.500000000000004 51.500000000000007 19.500000000000004 0.1181455633100698 24.500000000000004 11.500000000000002 0.3603278688524591 3.5000000000000004 0.046536796536796543 250.00000000000003 0.18257575757575759 12.500000000000002 9.5000000000000018 16.500000000000004 0.097619047619047633 0.0050893550893550904 0.62593283582089565 31.500000000000004 0.9784722222222223 0.83422939068100377 250.00000000000003 0.36127844712182067 0.91596045197740128 0.9784722222222223 5.5000000000000009 0.49827586206896557 0.84561213434452875 2.5000000000000004
decision_type=2 2 2 2 2 2 2 2 2 2 2 2 2 2 2 2 2 2 2 2 2 2 2 2 2 2 2 2 2 2
left_child=1 7 5 18 10 -2 -7 8 -1 15 16 -6 -9 23 -11 25 -3 -18 -4 20 21 -20 -8 -14 -25 27 -27 -10 -29 -30
right_child=2 4 3 -5 11 6 22 12 9 14 -12 -13 13 -15 -16 -17 17 -19 19 -21 -22 -23 -24 24 -26 26 -28 28 29 -31
leaf_value=-0.0011446605703613374 -6.5224811351716848e-05 -0.0036131740605995417 -0.0038955617673285294 0.0049816389103060701 -0.0040114364796928611 0.0017931262329339633 0.0030703637394495584 -0.00075756065436663553 -0.00022849420056664113 0.00043231124387910382 -0.0015069772164893035 -0.067549784258503762 0.0008046840071698454 -0.0041690704583005889 0.002586821731246006 -0.0047816573846643151 -0.010876249814259999 -0.085991573306082938 -0.010492256931896463 -0.0018300444862598304 0.076587742810421605 -0.045674155412523426 0.015413571179128047 0.0046996946487403201 0.0013016655158763404 0.00030260281746559751 0.0039114298522665517 -0.0030204946928370363 -0.0010802042227926955 0.0015041855794742591
leaf_weight=28392.430386573746 4949.9241281232898 3861.7239233252621 3198.5336013620836 1377.558697728804 12121.757055089984 19982.409204528027 29633.924818599611 4482.2739152335707 52248.457673792007 43635.292665130823 16656.041163742135 3.3265072782378402 11495.249094554703 562.47584754737909 2711.9373485327233 598.24837706424296 15.782723482465373 4.4161981063662088 480.27872177353129 203.69330625608563 1.3546373723074783 10.046260861214249 68.452547006607347 1811.0303708584688 3330.9350397114467 7216.9643450514704 829.64549328116118 6999.0213231695889 16607.064735935433 7301.987252226696
leaf_count=610187 97219 79208 72629 25023 285144 349500 507562 90911 1062823 807722 308439 300 201338 11500 53507 14302 400 200 11003 4302 100 300 1005 30304 56613 171814 14801 153017 368636 130009
internal_value=0 -0.000525996 0.00193946 -0.00215588 -0.00270811 0.0023346 0.00257369 -0.000147325 -0.000264718 -8.38718e-05 -0.00192837 -0.00402887 0.000754383 0.0011484 0.000558379 -0.000408121 -0.00373642 -0.0272991 -0.00468095 -0.00829351 -0.0109712 -0.0112131 0.00309881 0.00132817 0.00249847 -0.000379433 0.000674691 -0.000481435 -0.000909018 -0.000290914
internal_weight=0 220886 59906.2 5271.47 32663 54634.7 49684.8 188223 166541 138149 20538 12125.1 21682 17199.7 46347.2 91801.4 3881.92 20.1989 3893.91 695.373 491.68 490.325 29702.4 16637.2 5141.97 91203.1 8046.61 83156.5 30908.1 23909.1
internal_count=5519818 4451175 1068643 113357 673691 955286 858067 3777484 3386818 2776631 388247 285444 390666 299755 861229 1915402 79808 600 88334 15705 11403 11303 508567 288255 86917 1901100 186615 1714485 651662 498645
is_linear=0
shrinkage=0.05


Tree=14
num_leaves=31
num_cat=0
split_feature=0 2 1 0 1 3 0 3 0 4 1 0 1 8 6 14 1 0 13 2 1 5 5 2 4 3 12 7 6 12
split_gain=110.186 71.6065 37.0406 35.3689 12.2047 11.5876 8.00296 7.59115 17.4265 6.1306 5.10737 5.04018 4.99695 4.8889 9.10837 6.23657 4.28599 4.04757 4.01352 3.72199 3.61452 6.79142 4.809 3.87307 4.07784 3.39444 7.14348 3.27808 3.26994 6.2414
threshold=16.500000000000004 8.1666666666666696 22.500000000000004 51.500000000000007 20.500000000000004 0.12571839080459773 24.500000000000004 0.35329985652797707 3.5000000000000004 0.046536796536796543 1.5000000000000002 11.500000000000002 250.00000000000003 0.0039933046389287437 0.097619047619047633 1.4827202352069688 16.500000000000004 124.50000000000001 1.1092842764332551 6.416666666666667 16.500000000000004 0.78451797385620925 0.021863799283154125 11.16666666666667 0.11237373737373739 0.13423423423423428 1.0642752805987827 0.044466403162055343 0.16025641025641027 1.0000000180025095e-35
decision_type=2 2 2 2 2 2 2 2 2 2 2 2 2 2 2 2 2 2 2 2 2 2 2 2 2 2 8 2 2 8
left_child=1 7 5 -4 9 -2 19 11 16 13 -10 -1 -6 -3 15 -15 -9 20 -19 -7 -8 22 -22 24 -24 26 -25 -26 -13 -30
right_child=2 4 3 -5 12 6 17 8 10 -11 -12 28 -14 14 -16 -17 -18 18 -20 -21 21 -23 23 25 27 -27 -28 -29 29 -31
leaf_value=-0.0011101568385953157 6.8410887687036227e-05 -0.0033394711795038377 -0.0045407936850202597 0.0047873816068153274 -0.0039725057505841958 0.0021051488606007927 0.0028280939275015723 -0.00038020885370027891 0.00033884472516651986 -0.0015612577933816841 0.0013117821303670835 0.00020482468155540797 -0.066409212806795667 -0.0088316016122802644 -0.082985815144086483 -0.098422521446188529 -0.0046386795936298221 0.0059515903317098138 0.02218739287769142 0.00042482394757861676 0.020475401643083587 0.017573729767703865 -0.003268122219990139 -0.097178786877194279 0.0067262206820965734 0.0011594786220669811 -0.00081121015967538536 0.028268975105159334 -0.095704928434901151 -0.0039774395049986663
leaf_weight=28339.82178483851 5304.623708588173 3666.2012156997589 3888.2370830680593 1375.7124916239118 11494.337306515779 15672.740329264176 27212.379024292575 91073.417451127432 36202.847246442587 17234.397685927397 21498.673974691555 10356.444696352468 3.2054289242587393 201.65339066437446 4.329263158957473 1.961379432119428 594.71786194108427 600.10119453575317 40.642223778704647 4173.0379778002971 45.175825065860408 104.93736817942408 105.06459139227809 2.7363465279340717 757.08918625420483 550.44283346754673 6.4700093120336541 18.080346989445388 2.5731363473460052 6.6399664205964664
leaf_count=610187 103220 75807 88334 25023 271240 272181 466631 1901100 659416 321843 398252 194027 300 4201 200 100 14302 10016 502 75218 801 1601 1801 100 13106 9709 100 300 100 100
internal_value=0 -0.000516074 0.00190266 -0.00210291 -0.00267919 0.00228888 0.00252785 -0.00014106 2.06407e-05 -0.00196526 0.000701346 -0.000765087 -0.00398991 -0.00376248 -0.0112205 -0.00969461 -0.000407837 0.00305093 0.00698142 0.00175182 0.00296349 0.0052807 0.00441205 0.00390807 0.00597579 0.000655881 -0.0294539 0.00722869 0.000178337 -0.0295961
internal_weight=0 220681 59857.5 5263.95 32606.1 54593.5 49288.9 188075 149370 21108.5 57701.5 38705.5 11497.5 3874.15 207.944 203.615 91668.1 29443.1 640.743 19845.8 28802.4 1590 1485.06 1439.88 880.234 559.649 9.20636 775.17 10365.7 9.2131
internal_count=5519818 4451175 1068643 113357 673691 955286 852066 3777484 2973070 402151 1057668 804414 271540 80308 4501 4301 1915402 504667 10518 347399 494149 27518 25917 25116 15207 9909 200 13406 194227 200
is_linear=0
shrinkage=0.05


Tree=15
num_leaves=31
num_cat=0
split_feature=0 2 1 0 1 3 0 3 0 4 1 8 6 14 1 0 2 1 0 2 1 9 1 12 3 2 12 13 4 4
split_gain=105.464 68.7415 35.9871 34.2064 11.5264 10.7771 7.26072 7.10589 15.3305 6.33256 6.33004 5.59043 8.18233 6.71104 4.68064 4.15713 4.10245 4.0098 3.85064 3.59255 8.91287 6.43018 4.13832 5.99796 17.3448 6.25919 8.42005 3.71277 3.4175 21.8603
threshold=16.500000000000004 8.1666666666666696 22.500000000000004 51.500000000000007 19.500000000000004 0.1181455633100698 29.500000000000004 0.35329985652797707 3.5000000000000004 0.046536796536796543 1.5000000000000002 0.0039933046389287437 0.097619047619047633 1.4827202352069688 250.00000000000003 10.500000000000002 11.583333333333334 16.500000000000004 250.00000000000003 16.416666666666668 52.500000000000007 0.70714285714285718 38.500000000000007 1.1539433734873563 0.24357284113381678 13.833333333333334 1.0000000180025095e-35 3.1090199375949448 0.85092592592592597 0.49827586206896557
decision_type=2 2 2 2 2 2 2 2 2 2 2 2 2 2 2 2 2 2 2 2 2 2 2 10 2 2 8 2 2 2
left_child=1 7 5 -4 9 -2 16 15 17 11 -10 -3 13 -13 19 -1 -7 28 -8 22 21 -21 -6 25 -25 26 -24 -22 29 -9
right_child=2 4 3 -5 14 6 18 8 10 -11 -12 12 -14 -15 -16 -17 -18 -19 -20 20 27 -23 23 24 -26 -27 -28 -29 -30 -31
leaf_value=-0.0011044028781412672 1.8536330574662811e-05 -0.0032846613170444492 -0.0044951300436187917 0.0046875924917680984 -0.0044202852449920973 0.0021211586031965116 0.0031011191431088046 -0.00023060868291445566 0.00025046555994017469 -0.0014847172617005542 0.0013300803027091589 -0.0093280386387717788 -0.080308679635610336 -0.095138160554208331 -0.065364880305517126 4.1107751426177832e-07 5.0906485383376941e-05 -0.0044882609787638946 0.014992639942614617 -0.0016159731891113725 -0.0057878265597308244 -0.086565456038999053 0.079714613567486534 -0.09629473597768605 -0.0078508539001536457 -0.0064088603270610837 -0.054308232750910394 0.079826771731741686 5.9570361759830568e-05 -0.0032093672489663019
leaf_weight=25968.390315024255 4948.4479976216098 3624.2077999579487 3874.4452783934539 1373.7370850996376 5625.8672784749651 24738.05530455977 22126.593734716269 52109.433325536636 36242.645026536644 16670.995285565994 21710.178394948874 198.7911639950471 4.2635179630015037 2.3049397446447975 3.092081567447166 12667.947509812584 2649.2306700405752 591.33415223681368 68.286750585328264 4118.4337163167074 1993.5776837539161 2.2288271454162887 1.2967055486515136 7.7289394496474442 19.603112623794004 245.21437155327294 12.177729580551386 1.2671217331662763 31889.072151088803 6984.791823376574
leaf_count=563682 97219 75307 88334 25023 138729 430030 380224 1062823 659416 308439 398252 4201 200 100 300 240732 46808 14302 1005 89609 49304 100 100 300 400 6102 400 100 684860 153417
internal_value=0 -0.000504606 0.00186294 -0.00209151 -0.00262688 0.00224353 0.00246559 -0.000137692 1.84966e-05 -0.0019059 0.000654909 -0.00373941 -0.0117648 -0.0103116 -0.00385548 -0.00074216 0.0019209 -0.000384256 0.00313771 -0.00383967 -0.00299003 -0.00166192 -0.00471856 -0.0105855 -0.032861 -0.00823201 -0.0414106 -0.00573344 -0.000357582 -0.000582691
internal_weight=0 220695 59778.8 5248.18 32531.1 54530.6 49582.2 188164 149527 20500.6 57952.8 3829.57 205.36 201.096 12030.5 38636.3 27387.3 91574.6 22194.9 12027.4 6115.51 4120.66 5911.89 286.021 27.3321 258.689 13.4744 1994.84 90983.3 59094.2
internal_count=5519818 4451175 1068643 113357 673691 955286 858067 3777484 2973070 388247 1057668 79808 4501 4301 285444 804414 476838 1915402 381229 285144 139113 89709 146031 7302 700 6602 500 49404 1901100 1216240
is_linear=0
shrinkage=0.05


Tree=16
num_leaves=31
num_cat=0
split_feature=0 2 1 0 1 3 0 3 0 1 0 4 4 1 1 0 1 4 8 6 14 2 1 1 5 2 14 0 6 5
split_gain=101.252 67.5042 34.0026 32.1508 11.2617 10.1295 7.16075 6.67567 17.6264 6.22702 5.73948 5.02911 25.9395 15.9134 14.5859 8.31526 7.02193 4.90466 4.83609 7.67412 5.28965 4.79826 4.3771 4.11972 9.17654 3.95469 3.9302 3.72422 3.58266 3.42757
threshold=16.500000000000004 8.1666666666666696 22.500000000000004 51.500000000000007 20.500000000000004 0.1181455633100698 29.500000000000004 0.4160256410256411 3.5000000000000004 4.5000000000000009 10.500000000000002 0.84561213434452875 0.49827586206896557 3.5000000000000004 3.5000000000000004 2.5000000000000004 20.500000000000004 0.046536796536796543 0.0039933046389287437 0.097619047619047633 1.4827202352069688 85.500000000000014 250.00000000000003 19.500000000000004 0.92893217893217905 11.583333333333334 2.5041641782857647 250.00000000000003 0.43181818181818188 0.09315452749105281
decision_type=2 2 2 2 2 2 2 2 2 2 2 2 2 2 2 2 2 2 2 2 2 2 2 2 2 2 2 2 2 2
left_child=1 7 5 -4 17 21 25 10 11 -10 -1 12 -9 -13 -14 -15 -17 18 -3 20 -20 -2 28 29 -25 -7 -16 -8 -6 -11
right_child=2 4 3 -5 22 6 27 8 9 23 -12 13 14 15 26 16 -18 -19 19 -21 -22 -23 -24 24 -26 -27 -28 -29 -30 -31
leaf_value=-0.0010517506195265151 9.3357252056280871e-05 -0.0031164407483958907 -0.0043662987111272389 0.0045465272560712656 -0.0038593152777880602 0.002066265172525649 0.0030424438968024766 -0.00026525346356447518 0.00052999237429193313 -0.00052660785517528845 0.00014332701239627761 -0.00043322508075799532 -0.00074915799088611282 0.0030035119217590792 -0.0053003744976761191 -0.0020926520284890392 -0.055504983625345186 -0.0015540136989960144 -0.0088430461407364314 -0.077916022169936316 -0.091227586093413846 -0.042332056088493539 -0.064403285896068183 -0.005801069655439201 -0.096801708929083935 3.1406956408319583e-05 -0.046763271143007268 0.014745527588959412 0.065408339743014313 0.0024792554632607801
leaf_weight=30526.459689150055 4930.3764957456006 3624.7297395415153 3853.9090578088071 1372.0332888469711 11418.151812220807 24725.971109556966 22122.831493816848 52410.436894998667 42330.257081090065 1083.8031972647877 14975.12190155343 25585.517417485302 2895.9539120144327 5694.3447267154115 4216.3407446813653 767.50387545142439 6.2031119232997289 17218.000609899202 193.27649979386479 4.2084383573965161 1.9682297824183468 6.6735791340470305 2.9849421254402833 85.410950930207036 2.8631899058818808 2642.9462883643355 5.7230071667581788 68.188470562257862 1.8670484051108349 7590.7604297466314
leaf_count=651199 97119 75807 88334 25023 271140 430030 380224 1071025 764923 18603 281441 570553 60009 98606 97008 17801 200 321843 4201 200 100 100 300 2002 100 46808 200 1005 100 143814
internal_value=0 -0.00049435 0.00182635 -0.0020263 -0.0025999 0.00219579 0.00241095 -0.00013109 3.70892e-05 0.000781138 -0.000658436 -0.000378012 -0.000649897 0.000126923 -0.00348206 0.00234269 -0.00252088 -0.00191377 -0.00353353 -0.0111135 -0.00967355 3.60094e-05 -0.00386381 0.00199434 -0.00875269 0.00186976 -0.00535658 0.00307841 -0.00384799 0.0021037
internal_weight=0 220642 59722.9 5225.94 32465.2 54497 49559.9 188177 142675 51093.1 45501.6 91582 59528.5 32053.6 7118.02 6468.05 773.707 21042.2 3824.18 199.453 195.245 4937.05 11423 8762.84 88.2741 27368.9 4222.06 22191 11420 8674.56
internal_count=5519818 4451175 1068643 113357 673691 955286 858067 3777484 2844844 929442 932640 1915402 1228242 687160 157217 116607 18001 402151 80308 4501 4301 97219 271540 164519 2102 476838 97208 381229 271240 162417
is_linear=0
shrinkage=0.05


Tree=17
num_leaves=31
num_cat=0
split_feature=0 2 1 0 1 0 0 3 1 3 4 4 1 1 0 1 3 0 0 4 1 2 5 0 1 5 3 4 13 8
split_gain=97.0662 64.5468 32.8731 30.6863 10.8768 10.2573 7.40894 17.9015 9.45606 5.53737 5.49728 21.6407 13.4097 12.6187 14.5895 5.93947 4.98741 4.64774 4.19744 4.16512 4.16363 3.76787 5.87017 7.76131 3.76491 6.91652 3.76192 4.14358 3.70631 3.59906
threshold=16.500000000000004 8.1666666666666696 22.500000000000004 51.500000000000007 19.500000000000004 22.500000000000004 3.5000000000000004 0.43613053613053615 4.5000000000000009 0.17521929824561405 0.84561213434452875 0.49827586206896557 3.5000000000000004 2.5000000000000004 2.5000000000000004 20.500000000000004 0.077524038461538478 10.500000000000002 124.50000000000001 0.046536796536796543 250.00000000000003 1.5833333333333337 0.55533154121863826 2.5000000000000004 19.500000000000004 0.92893217893217905 0.85092592592592597 0.49827586206896557 1.1092842764332551 0.0039933046389287437
decision_type=2 2 2 2 2 2 2 2 2 2 2 2 2 2 2 2 2 2 2 2 2 2 2 2 2 2 2 2 2 2
left_child=1 6 5 -4 19 9 10 17 26 -2 11 -1 -13 21 -15 -16 -7 -8 -18 29 -6 22 23 -12 -10 -26 27 -9 -20 -3
right_child=2 4 3 -5 20 16 7 8 24 -11 13 12 -14 14 15 -17 18 -19 28 -21 -22 -23 -24 -25 25 -27 -28 -29 -30 -31
leaf_value=-0.00036870142968671772 -0.00069650069119559345 -0.002981028035024751 -0.0042959916790898068 0.0044185509382811301 -0.0037285129970322291 -0.00020523381979840267 -0.00094682187458213028 0.00051029781875884235 0.0024676208410883342 0.0015874038826823597 -0.0017532670059098475 -0.00071478418063094184 -0.0049960960959289161 0.002351757073420726 -0.0029818635707625162 -0.054346615873273545 0.0026821011468781413 0.00012713714119611842 0.0057764589407720826 -0.0015039138209332554 -0.063604556629834233 -0.0013527892040630348 0.0010734816010129296 0.0022407553197473966 -0.0058424788761666548 -0.093250194739151082 -3.3787126717910938e-05 0.0019741357105500187 0.021419123770384449 -0.009931113404074883
leaf_weight=55547.826762001772 3229.9609165702204 3586.4047349283355 3841.4492042426718 1370.5929245710213 11961.092361675168 1480.9916372594744 27244.879554553394 16359.187952708584 8407.3603158649785 14880.967922812109 6219.0211075207335 3121.1480011206295 4417.6686166551663 8523.701101765866 1372.8572051317606 5.6512064132839432 34222.224005593016 15984.56218944733 602.73380495930178 16634.746246491355 2.9041011239169157 8997.8182028886949 6419.1810582308681 1512.0733769871586 78.867192227044143 2.3300926540978244 17135.333556410769 6862.0310822598694 40.405463692462945 196.47723116923589
leaf_count=1142039 62212 75307 88334 25023 285144 29207 576383 299963 155017 262276 143012 64609 102509 146008 31503 200 590973 299144 10116 308439 300 203318 155818 26003 1902 100 309735 120221 502 4501
internal_value=0 -0.000483949 0.00178913 -0.00200436 -0.00254593 0.0021522 -0.000129187 0.000191366 0.000847246 0.00118009 -0.000436195 -0.000709859 -0.00322359 8.61771e-05 0.00157994 -0.00319243 0.0026366 -0.000549714 0.00275731 -0.00184447 -0.00374305 -0.000552819 -4.41366e-05 -0.000972103 0.00236414 -0.00835079 0.000528184 0.000942872 0.00675922 -0.00334201
internal_weight=0 220593 59669.3 5212.04 32381.6 54457.3 188211 92074.6 48845.1 18110.9 96136.9 63086.6 7538.82 33050.3 9902.21 1378.51 36346.4 43229.4 34865.4 20417.6 11964 23148.1 14150.3 7731.09 8488.56 81.1973 40356.6 23221.2 643.139 3782.88
internal_count=5519818 4451175 1068643 113357 673691 955286 3777484 1762465 886938 324488 2015019 1309157 167118 705862 177711 31703 630798 875527 601591 388247 285444 528151 324833 169015 157019 2002 729919 420184 10618 79808
is_linear=0
shrinkage=0.05


Tree=18
num_leaves=31
num_cat=0
split_feature=0 2 1 0 1 0 0 3 1 4 4 1 0 1 5 11 1 3 4 0 3 12 4 1 14 1 5 5 0 0
split_gain=95.072 62.0488 31.7424 29.6678 10.2465 9.80084 7.19589 19.5306 9.42194 5.67098 25.6118 10.6849 8.07144 5.98565 7.01639 8.32339 5.48453 5.21583 5.15883 5.08673 4.72618 4.69856 4.29508 5.04749 6.11139 3.93971 3.77424 3.7259 5.78952 3.71398
threshold=16.500000000000004 8.1666666666666696 22.500000000000004 51.500000000000007 16.500000000000004 22.500000000000004 3.5000000000000004 0.43613053613053615 4.5000000000000009 0.84561213434452875 0.52041666666666686 3.5000000000000004 2.5000000000000004 3.5000000000000004 0.5899293177404864 0.36132478632478643 20.500000000000004 0.17521929824561405 0.059714795008912663 10.500000000000002 0.077524038461538478 1.3681557961521522 0.49827586206896557 3.5000000000000004 2.5041641782857647 250.00000000000003 0.58346560846560858 0.17976467976467983 1.5000000000000002 250.00000000000003
decision_type=2 2 2 2 2 2 2 2 2 2 2 2 2 2 2 2 2 2 2 2 2 8 2 2 2 2 2 2 2 2
left_child=1 6 5 -4 18 17 9 19 -9 10 22 -11 -13 -12 26 21 -14 -2 -3 -8 -7 -16 -1 -24 -25 -6 27 28 -15 -22
right_child=2 4 3 -5 25 20 7 8 -10 11 13 12 16 14 15 -17 -18 -19 -20 -21 29 -23 23 24 -26 -27 -28 -29 -30 -31
leaf_value=-0.00034449019469202496 -0.00064622454454541563 -0.0034029542311380767 -0.0042204002145214857 0.0043555324971109267 -0.0035032951921399966 -0.00016386269057612121 -0.001005972694426346 0.00054754794398580425 0.0023731271963783307 -0.00035146325367352966 -0.00087393954873726278 0.0025922341219467727 -0.0021985704927899221 -0.096693836618631179 -0.0088198540361153991 -0.096517837616458879 -0.053282696279088763 0.0015721409130834624 -0.0012987097490398958 0.00011722148458365883 0.0026956277339652158 0.077507974304636573 -0.00070755075107031059 -0.0044573706193373006 -0.087062238083298313 -0.062768906685294376 0.083551340758788936 -0.003791212765342162 -0.013297719686920279 0.014386617636279847
leaf_weight=55562.02590903388 3224.3016683315873 3640.6265709657746 3829.0223733444582 1369.0422049628396 14090.834682360175 1482.6883771029679 27299.080296745116 40661.873719452764 8554.661794587184 26645.240931911118 837.3851318100933 5694.8990720047004 896.94119175712694 2.6630513411946568 1065.2780092175817 2.704559911042451 5.2851753691211334 14868.471598905679 14567.964488623824 15981.31990574878 34811.495719634295 1.5785043044015754 2284.0140131390654 1310.1523218415678 2.2429082938469938 2.8046883839269858 1.2328739813528944 2005.2787501456914 9.5230667477007955 68.065225477657805
leaf_count=1142039 62212 76808 88334 25023 335654 29207 576383 729919 157019 586155 17604 98606 20901 100 24903 100 200 262276 260929 299144 600586 100 47005 29701 100 300 100 47205 200 1005
internal_value=0 -0.00047787 0.0017714 -0.00196171 -0.00250289 0.00212775 -0.000131448 0.00018354 0.000864864 -0.000433913 -0.000712405 9.45809e-05 0.00189612 -0.00462336 -0.00564002 -0.00891421 -0.00249782 0.00117681 -0.00171943 -0.000591232 0.00260091 -0.00869212 -0.000452881 -0.00212745 -0.00459854 -0.00351509 -0.00390527 -0.00395872 -0.0315224 0.00271844
internal_weight=0 221126 59653.1 5198.06 32302.2 54455 188823 92496.9 49216.5 96326.4 63084.1 33242.4 6597.13 3925.64 3088.26 1069.56 902.226 18092.8 18208.6 43280.4 36362.2 1066.86 59158.4 3596.41 1312.4 14093.6 2018.7 2017.46 12.1861 34879.6
internal_count=5519818 4451175 1068643 113357 673691 955286 3777484 1762465 886938 2015019 1309157 705862 119707 90312 72708 25103 21101 324488 337737 875527 630798 25003 1218845 76806 29801 335954 47605 47505 300 601591
is_linear=0
shrinkage=0.05


Tree=19
num_leaves=31
num_cat=0
split_feature=0 2 1 0 0 1 0 3 1 3 4 4 1 1 0 1 5 11 0 4 1 5 3 5 0 1 14 13 2 1
split_gain=91.9527 61.056 31.2543 28.5956 9.27042 9.20341 8.07498 19.6489 10.7621 4.86751 4.61312 20.6765 12.1089 10.3929 7.34357 5.00359 4.9548 7.03159 4.60514 4.55189 5.48569 5.60929 4.35906 3.76317 3.75 3.6717 3.64618 3.57117 3.47745 5.75332
threshold=16.500000000000004 8.1666666666666696 22.500000000000004 51.500000000000007 22.500000000000004 23.500000000000004 3.5000000000000004 0.49827586206896557 4.5000000000000009 0.17521929824561405 0.84561213434452875 0.49827586206896557 3.5000000000000004 3.5000000000000004 2.5000000000000004 20.500000000000004 0.5899293177404864 0.36132478632478643 11.500000000000002 0.4152394775036285 18.500000000000004 0.92893217893217905 0.077524038461538478 0.42862021857923505 124.50000000000001 250.00000000000003 0.62576293986543197 1.1092842764332551 13.583333333333334 44.500000000000007
decision_type=2 2 2 2 2 2 2 2 2 2 2 2 2 2 2 2 2 2 2 2 2 2 2 2 2 2 2 2 2 2
left_child=1 6 4 28 9 26 10 18 -9 -2 11 -1 -13 -12 -15 -16 -14 -18 -8 -10 23 -22 -6 -21 -24 -7 -3 -26 -4 -30
right_child=2 5 3 -5 22 25 7 8 19 -11 13 12 16 14 15 -17 17 -19 -20 20 21 -23 24 -25 27 -27 -28 -29 29 -31
leaf_value=-0.00036630974523725298 -0.00059322749641664444 -0.002614854898622513 -0.0068231189037325493 0.004237775485078781 -0.00010168771025128924 -0.0037843246464120263 -0.00086314773785096358 0.00057689429783291718 0.0011426644390098543 0.0015529390580886378 -0.00041059084010800352 -0.00078949876358814163 -0.0037528392903931566 0.002465044126946724 -0.0021196285622868782 -0.052234182059800544 -0.0072605637376252294 -0.092964628333469329 0.00022329747682147528 0.0057306395917553279 -0.0074326531269954324 -0.089841315783485975 0.0025988741081678433 0.0027658914902697332 0.0054914934465151582 -0.061995092428521151 -0.0013489680274115868 0.020874975915776129 -0.0013808361565529476 -0.0058975180269433851
leaf_weight=55550.156067530959 3213.4149000320685 10676.99588839733 942.48067329468904 1367.9131962605024 1478.8233142758399 9367.7019641192746 31702.559632510587 38435.901273295574 3342.4508919834334 14855.114647946313 26684.921012138504 3120.1483541790294 3027.1982560452307 5710.9074072348594 892.91965791684925 5.0086808530613771 1326.5551375881769 2.3975897845812133 14087.988261589213 1597.993022742754 74.89937901950907 2.1234573242254546 34209.978842010067 3241.4477501460206 601.73769667960005 2.7097289204248218 12174.648604727263 40.249543037964031 1639.1525615717401 1237.2117695112829
leaf_count=1142039 62212 218645 22010 25023 29207 224931 661291 692314 57508 262276 586155 64609 71006 98606 20901 200 31403 100 259843 28403 1700 100 590973 61306 10116 300 229815 502 36516 29808
internal_value=0 -0.000469943 0.00174321 -0.00196532 0.0020968 -0.00248154 -0.000126638 0.000207061 0.00092876 0.00117125 -0.000447052 -0.000698547 -0.00316712 2.90376e-05 0.00180415 -0.00239917 -0.00487013 -0.00741518 -0.00052889 0.0025663 0.00353415 -0.00970459 0.00255711 0.00374486 0.00266992 -0.00380116 -0.00194043 0.00645596 -0.00418727 -0.0033236
internal_weight=0 221028 59586.1 5186.76 54399.3 32222.1 188806 92485.4 46694.8 18068.5 96320.2 63026.5 7476.3 33293.8 6608.84 897.928 4356.15 1328.95 45790.5 8258.91 4916.46 77.0228 36330.8 4839.44 34852 9370.41 22851.6 641.987 3818.85 2876.36
internal_count=5519818 4451175 1068643 113357 955286 673691 3777484 1762465 841331 324488 2015019 1309157 167118 705862 119707 21101 102509 31503 921134 149017 91509 1800 630798 89709 601591 225231 448460 10618 88334 66324
is_linear=0
shrinkage=0.05


Tree=20
num_leaves=31
num_cat=0
split_feature=0 2 1 0 1 0 0 3 1 4 3 0 1 2 9 1 12 2 13 3 4 0 3 12 1 4 4 1 1 0
split_gain=90.9726 58.762 29.6255 27.3108 9.38558 9.05954 8.44655 20.1334 7.22823 4.91817 4.68353 4.2573 3.90157 7.37725 5.84838 3.87251 4.70962 9.4282 5.7815 15.1316 6.53827 4.05112 3.79805 3.78078 3.76198 3.76013 17.0009 9.92895 9.43136 6.74949
threshold=16.500000000000004 8.1666666666666696 22.500000000000004 51.500000000000007 12.500000000000002 22.500000000000004 3.5000000000000004 0.49827586206896557 1.5000000000000002 0.077677224736048281 0.17521929824561405 11.500000000000002 52.500000000000007 16.583333333333339 0.70714285714285718 38.500000000000007 0.6723473479686537 13.833333333333334 0.88873509119510963 0.330952380952381 0.1181455633100698 1.5000000000000002 0.077524038461538478 0.88124694170216433 40.500000000000007 0.84561213434452875 0.49827586206896557 3.5000000000000004 3.5000000000000004 2.5000000000000004
decision_type=2 2 2 2 2 2 2 2 2 2 2 2 2 2 2 2 10 2 2 2 2 2 2 8 2 2 2 2 2 2
left_child=1 6 5 -4 9 10 25 11 -9 -3 -2 -8 13 15 -15 -6 -17 23 19 -19 -21 24 -7 -18 -22 26 -1 -27 -28 -29
right_child=2 4 3 -5 12 22 7 8 -10 -11 -12 -13 -14 14 -16 16 17 18 -20 20 21 -23 -24 -25 -26 27 28 29 -30 -31
leaf_value=-0.00038547724891824903 -0.00056878433195276272 -0.0032230670851278844 -0.0040439559005343842 0.0041915789217047928 -0.00364059960464632 5.4039355223791688e-05 -0.00085721476743867405 0.00045048801352615635 0.001729964161614206 -0.0010984516988973277 0.0015377799545619698 0.00018789462507046549 -0.0053709046361631587 -0.0014064808353219083 -0.083300810770978229 0.0034972778491872223 -0.094320424311082299 -0.091894084613603016 -0.004296184942351405 -0.094013972946870278 -0.095353174819122519 -0.0078498841267203405 0.0026392401106827678 -0.024226061395621612 -0.023257736012218946 -0.00045860026271823772 -0.00083815211020009633 0.0023390169223768548 -0.0044474772980793156 -0.0023324941718500677
leaf_weight=55519.408594334251 3209.1051396552793 3503.0742615386844 3822.8155234642327 1366.5338032660075 9173.5778504026239 1481.1357868966297 31646.799490783102 28824.143698896631 17889.296590769489 12245.326808701328 14840.241125741071 14079.480483469379 1963.5258164325496 4997.4136798334657 2.1810089375358066 54.948059929767624 4.7840295279165703 6.9214674127288154 131.35374120087363 2.5171300787478676 2.5312068806961161 66.362836953485385 34836.748123096695 3.2176952138543138 6.3454725192859769 26691.764349947101 3119.7505649712402 5711.0648059629457 4310.9323184305103 894.28250052616931
leaf_count=1142039 62212 74407 88334 25023 219544 29207 661291 520190 321141 216723 262276 259843 49704 105911 100 1502 200 300 3000 100 100 1800 601591 100 200 586155 64609 98606 102509 21101
internal_value=0 -0.000467675 0.00173427 -0.00187526 -0.00244307 0.00207879 -0.000130944 0.000210409 0.000940474 -0.00157105 0.00116324 -0.000535417 -0.00327964 -0.00299552 -0.00144221 -0.00381709 -0.00962036 -0.0128377 -0.0108636 -0.0210511 -0.0147451 -0.0120931 0.00253381 -0.0661337 -0.0438159 -0.000458793 -0.000686084 -2.90861e-05 -0.00293211 0.00170655
internal_weight=0 220851 59556.6 5189.35 32164.1 54367.2 188687 92439.7 46713.4 15748.4 18049.3 45726.3 16415.7 14452.2 4999.59 9452.56 278.982 224.034 216.032 84.6781 77.7566 75.2395 36317.9 8.00172 8.87668 96247.2 62950.1 33297.1 7430.68 6605.35
internal_count=5519818 4451175 1068643 113357 673691 955286 3777484 1762465 841331 291130 324488 921134 382561 332857 106011 226846 7302 5800 5500 2500 2200 2100 630798 300 300 2015019 1309157 705862 167118 119707
is_linear=0
shrinkage=0.05


Tree=21
num_leaves=31
num_cat=0
split_feature=0 2 1 0 1 0 3 0 1 3 1 4 0 0 1 13 1 3 8 1 4 4 1 0 1 2 5 0 14 5
split_gain=89.302 57.0585 27.5486 25.5392 9.06106 8.5693 19.9736 8.42099 6.78624 4.58165 3.85162 4.04058 3.80152 3.64608 3.47342 3.46512 3.41112 3.23415 3.57435 7.30629 3.17925 15.0217 10.0658 8.59283 7.9039 5.3615 9.57936 7.70542 4.32823 3.29099
threshold=16.500000000000004 8.1666666666666696 22.500000000000004 51.500000000000007 20.500000000000004 3.5000000000000004 0.49827586206896557 22.500000000000004 4.5000000000000009 0.17521929824561405 17.500000000000004 0.37449186991869926 11.500000000000002 124.50000000000001 250.00000000000003 1.1092842764332551 16.500000000000004 0.077524038461538478 0.0063497822931785205 12.500000000000002 0.84561213434452875 0.49827586206896557 2.5000000000000004 2.5000000000000004 3.5000000000000004 1.5833333333333337 0.55533154121863826 2.5000000000000004 0.2677482352209562 0.5899293177404864
decision_type=2 2 2 2 2 2 2 2 2 2 2 2 2 2 2 2 2 2 2 2 2 2 2 2 2 2 2 2 2 2
left_child=1 5 7 -4 -3 16 12 9 -8 -2 11 -10 -7 17 -6 -15 20 18 -9 -20 21 28 25 -24 -23 26 27 -22 -1 -26
right_child=2 4 3 -5 14 6 8 13 10 -11 -12 -13 -14 15 -16 -17 -18 -19 19 -21 22 24 23 -25 29 -27 -28 -29 -30 -31
leaf_value=-0.00059297776939401601 -0.00054520814871773609 -0.0017952974336068309 -0.0038701875522180471 0.0040997609891746754 -0.0035425876235519248 -0.00083547139872471629 0.00065909376305899221 0.00028933063727201491 0.00082167199518086128 0.0015385582281990228 -0.0047247877830848932 0.0031903855074159508 0.00015276636446721453 0.0052771374370285699 -0.061220359786907014 0.020451664591071086 -0.0042037660716309367 0.0025215059454535898 -0.098073178564098973 0.012443327841713306 -0.0019683409881377598 -0.00089759808932180364 0.0018884535026436515 -0.0024151362344017862 -0.0033212746576980253 -0.0015515754455212001 0.0014128066169377836 0.0020101324720852953 0.00050491387601234541 -0.0064286919895920865
leaf_weight=43830.048560731244 3208.4543624686339 20865.418600218174 3809.2406017769244 1365.477533642159 11243.076876545209 31609.770205804773 38381.225911126297 1471.2261020626029 2698.1420105235738 14835.010584902673 194.1077805319801 5410.655111664455 14059.827247003166 600.8644282370733 2.6108467341618953 40.133578222426877 605.30861761467531 34176.431819925579 2.7655427595600477 3.2564141396433115 6221.821316550835 3119.9022244816879 8479.8796711452014 1343.6715887086466 2889.6139528764179 9152.6597017264867 6509.395820325095 1512.9877515835542 11289.188139981852 1208.359461428714
leaf_count=923421 62212 402151 88334 25023 271240 661291 692314 29007 46304 262276 4502 98211 259843 10116 300 502 14702 590973 100 100 143012 64609 144708 31103 68706 203318 155818 26003 210116 29503
internal_value=0 -0.000463646 0.00171885 -0.00176712 -0.00241191 -0.000131788 0.000212201 0.00205082 0.000939479 0.00116803 0.0022356 0.00240221 -0.000531233 0.0024897 -0.00355598 0.00622723 -0.000462151 0.0024225 0.000131979 -0.0383106 -0.000438449 -0.000648987 -4.33822e-05 0.00129981 -0.00279387 -0.000607341 -6.20787e-07 -0.00119012 -0.000368114 -0.00423755
internal_weight=0 220628 59512.9 5174.72 32111.1 188517 92353.7 54338.1 46684.1 18043.5 8302.9 8108.8 45669.6 36294.7 11245.7 640.998 96162.8 35653.7 1477.25 6.02196 95557.5 62337.1 33220.4 9823.55 7217.88 23396.9 14244.2 7734.81 55119.2 4097.97
internal_count=5519818 4451175 1068643 113357 673691 3777484 1762465 955286 841331 324488 149017 144515 921134 630798 271540 10618 2015019 620180 29207 200 2000317 1296355 703962 175811 162818 528151 324833 169015 1133537 98209
is_linear=0
shrinkage=0.05


Tree=22
num_leaves=31
num_cat=0
split_feature=0 2 1 0 1 0 3 0 1 2 4 3 1 4 14 3 2 0 0 1 1 2 10 3 6 1 2 9 2 5
split_gain=86.1606 54.9573 26.5091 24.875 8.71135 8.299 19.4069 7.87883 6.42677 4.68792 4.50371 4.29776 4.47769 4.53534 4.10539 3.73536 3.59297 3.57478 3.51006 3.31229 3.20501 3.19955 5.09882 3.10004 7.58336 2.98343 6.38544 5.3822 3.13235 6.78816
threshold=16.500000000000004 8.1666666666666696 22.500000000000004 51.500000000000007 15.500000000000002 3.5000000000000004 0.49827586206896557 24.500000000000004 2.5000000000000004 85.500000000000014 0.4152394775036285 0.85092592592592597 18.500000000000004 0.79898989898989914 0.65919720040063823 0.077524038461538478 11.583333333333334 11.500000000000002 250.00000000000003 250.00000000000003 16.500000000000004 44.416666666666679 0.94444444444444453 0.16378539493293595 0.16025641025641027 52.500000000000007 16.416666666666668 0.70714285714285718 28.583333333333339 0.95886752136752151
decision_type=2 2 2 2 2 2 2 2 2 2 2 2 2 2 2 2 2 2 2 2 2 2 2 2 2 2 2 2 2 2
left_child=1 5 7 -4 14 20 17 9 -8 15 -10 12 -12 -14 -3 -2 -17 -7 21 25 -1 -9 -23 24 -19 26 -6 -28 -27 -30
right_child=2 4 3 -5 19 6 8 18 10 -11 11 -13 13 -15 -16 16 -18 23 -20 -21 -22 22 -24 -25 -26 28 27 -29 29 -31
leaf_value=-0.00043216700419671737 -0.0013635737286614401 -0.0024341105011562044 -0.0038141932207065321 0.0040565012964139746 -0.0038525586912669003 -0.00082044401760813547 0.00056120038718345509 0.0025382490301335231 0.00071033386635532185 -0.031784203435149837 0.0040379297087033026 0.0015205415671165367 -0.0089897826731288079 -0.08662194668490486 -0.00090436964591921365 0.0016789372372516213 -0.00054629219039538715 -0.0010269077971781745 0.013875604427435281 -0.060555813517386974 -0.0040891486241188364 -0.0030647889675512346 -0.098202203608079797 0.0005897902271958448 -0.091203445699466729 -0.0079712367976725179 -0.0014725223660154562 -0.080628032176081388 -0.0035454738362648945 -0.090080077311793544
leaf_weight=95588.638680215823 1229.7737746939383 8278.8960359705343 3799.7439442947507 1364.3110501257979 7868.9572804720374 31538.388140324911 33666.294072151388 31463.45630910567 5086.9899505958747 10.702007625252007 3669.1347836717614 4189.4670032014983 37.559986993903294 1.9805411486886431 9327.1070453084831 19349.710867515852 2001.6869304161664 3795.3293225522502 67.929103498187033 2.5238486593916596 602.9120736970799 204.05495003800024 1.4181268187239755 10263.199269140387 2.3328204564750186 635.74671679595485 4609.3400418929523 2.1485207511577746 1310.059537599911 2.2702006061444981
leaf_count=2000317 24403 158127 88334 25023 196540 661291 605404 546367 87212 200 68110 79605 900 100 169509 343701 35905 76409 1005 300 14702 3605 100 183334 100 16101 99711 100 33203 100
internal_value=0 -0.000455632 0.00168857 -0.0017348 -0.00237016 -0.000130143 0.000208683 0.00201397 0.000925668 0.00130031 0.00187062 0.00261793 0.00385758 -0.0128783 -0.0016237 0.00131599 0.00147032 -0.000524846 0.00252199 -0.00328084 -0.000455088 0.00249764 -0.00372141 0.000138179 -0.0010823 -0.00327083 -0.00298677 -0.0015094 -0.00509065 -0.00369517
internal_weight=0 220479 59492.8 5164.05 32037 188442 92250.7 54328.7 46651.4 22591.9 12985.1 7898.14 3708.68 39.5405 17606 22581.2 21351.4 45599.2 31736.9 14431 96191.6 31668.9 205.473 14060.9 3797.66 14428.5 12480.4 4611.49 1948.08 1312.33
internal_count=5519818 4451175 1068643 113357 673691 3777484 1762465 955286 841331 404209 235927 148715 69110 1000 327636 404009 379606 921134 551077 346055 2015019 550072 3705 259843 76509 345755 296351 99811 49404 33303
is_linear=0
shrinkage=0.05


Tree=23
num_leaves=31
num_cat=0
split_feature=0 2 1 0 1 0 3 0 1 2 4 3 1 4 2 4 4 1 1 0 1 2 5 0 2 3 0 3 6 14
split_gain=85.9389 54.1539 25.6123 23.555 8.22121 8.0435 17.7812 7.99499 6.74947 5.97389 5.59034 5.6777 4.61922 4.11335 3.92975 3.90355 13.3956 10.7425 7.34136 6.60201 4.62258 3.7249 11.6062 5.34541 4.20522 3.60069 3.52977 3.55387 6.69798 3.32069
threshold=16.500000000000004 8.5833333333333339 22.500000000000004 53.500000000000007 16.500000000000004 3.5000000000000004 0.49827586206896557 28.500000000000004 2.5000000000000004 11.583333333333334 0.4152394775036285 0.85092592592592597 18.500000000000004 0.79898989898989914 85.500000000000014 0.84561213434452875 0.49827586206896557 3.5000000000000004 3.5000000000000004 2.5000000000000004 20.500000000000004 1.5833333333333337 0.55533154121863826 2.5000000000000004 1.1666666666666667 0.12571839080459773 11.500000000000002 0.15075757575757578 0.16025641025641027 0.65919720040063823
decision_type=2 2 2 2 2 2 2 2 2 2 2 2 2 2 2 2 2 2 2 2 2 2 2 2 2 2 2 2 2 2
left_child=1 5 7 -4 29 15 26 9 -8 25 -10 12 -12 -14 -11 16 -1 21 -18 -19 -21 22 23 24 -17 -2 -7 28 -28 -3
right_child=2 4 3 -5 -6 6 8 -9 10 14 11 -13 13 -15 -16 17 18 19 -20 20 -22 -23 -24 -25 -26 -27 27 -29 -30 -31
leaf_value=-0.00042387687831649425 0.00016361202918054507 -0.0024360575627618473 -0.0036549292921274424 0.0041173046470432155 -0.0033380130640117234 -0.00080056057164271598 0.0004984596859745013 0.0026706602184797148 0.00054986110208308213 -0.00061816896924170653 0.004240310768999403 0.0013901777345639787 -0.0081251501625509721 -0.083711230648352397 -0.031068188005798913 -0.0022743501219254698 -0.00082152613627513044 0.0023999648240015784 -0.0039944651541589235 -0.0019618179207532933 -0.051389951060799292 -0.0011574657828417694 0.0015830440747058442 0.0013810890855438774 0.001202033641567582 0.0019034059519360256 -0.0012693838404845919 0.00057151719023005232 -0.087612158543687632 -0.0010442279524387483
leaf_weight=55744.755470685268 3405.704883178696 7949.3164239006765 3844.0881704732019 1306.0401889022032 13360.157157684615 31786.475200837944 33727.78080164484 24665.016842895202 5210.2641796545067 2818.7110150661611 3801.5921954912774 4256.6214459700423 49.28478043852374 1.8681391123682249 10.635683830827473 6038.9227079551492 3122.1603797776625 5742.4773264101532 4381.2137189916102 886.36758091219235 4.7555378526449195 11332.819272660359 6800.410338831367 1658.4633803534234 1016.3070817233674 23457.057415252799 3155.9510372538934 11026.803185708239 2.2477132624480864 9297.9389230437082
leaf_count=1148941 66212 151524 89334 24023 322451 667792 606604 428342 89713 50408 69410 81105 1300 100 200 138812 64809 99706 105610 21001 200 242219 160320 29404 18200 410124 64208 198636 100 169010
internal_value=0 -0.000455318 0.00168605 -0.00168394 -0.00240695 -0.000140508 0.00019146 0.00200534 0.000874807 0.00145266 0.00182779 0.00264886 0.00403948 -0.0108856 -0.000732632 -0.000459745 -0.000690842 -2.31788e-05 -0.0026742 0.00177859 -0.00222559 -0.000468378 3.49905e-05 -0.00117315 -0.00177358 0.00168283 -0.000507881 0.000147971 -0.00133083 -0.00168573
internal_weight=0 220355 59507.3 5150.13 30607.4 189748 93018.9 54357.1 47047.4 29692.1 13319.6 8109.37 3852.75 51.1529 2829.35 96728.7 63248.1 33480.5 7503.37 6633.6 891.123 26846.9 15514.1 8713.69 7055.23 26862.8 45971.5 14185 3158.2 17247.3
internal_count=5519818 4451175 1068643 113357 642985 3808190 1778968 955286 848232 526944 241628 151915 70810 1400 50608 2029222 1319360 709862 170419 120907 21201 588955 346736 186416 157012 476336 930736 262944 64308 320534
is_linear=0
shrinkage=0.05


Tree=24
num_leaves=31
num_cat=0
split_feature=0 2 1 0 0 3 1 0 1 2 4 3 5 2 1 4 0 0 2 1 3 4 4 0 4 3 4 0 1 3
split_gain=83.0669 52.1237 25.0906 24.0032 8.90011 18.8532 8.09418 7.99352 7.96319 6.34608 5.98925 5.66713 4.34838 9.77066 7.8633 5.54831 4.36818 4.1998 3.95767 3.88651 3.76225 3.67502 3.59435 3.46153 3.68909 3.40218 3.32656 3.29624 3.21953 3.0735
threshold=16.500000000000004 8.5833333333333339 22.500000000000004 53.500000000000007 3.5000000000000004 0.43613053613053615 15.500000000000002 28.500000000000004 2.5000000000000004 11.583333333333334 0.4152394775036285 0.85092592592592597 0.66248955722639946 1.5833333333333337 1.5000000000000002 0.93015602145294995 1.5000000000000002 10.500000000000002 85.500000000000014 19.500000000000004 0.18257575757575759 0.54316770186335417 0.79898989898989914 2.5000000000000004 0.49827586206896557 0.66413300386764085 0.46225071225071229 250.00000000000003 250.00000000000003 0.12571839080459773
decision_type=2 2 2 2 2 2 2 2 2 2 2 2 2 2 2 2 2 2 2 2 2 2 2 2 2 2 2 2 2 2
left_child=1 4 7 -4 12 17 -3 9 -7 29 -10 19 16 23 -15 21 -1 -6 -11 -12 -19 -16 -21 24 -14 -18 -22 -9 -8 -2
right_child=2 6 3 -5 5 8 28 27 10 18 11 -13 13 14 15 -17 25 20 -20 22 26 -23 -24 -25 -26 -27 -28 -29 -30 -31
leaf_value=-0.0010227919170781939 0.00025502288230744172 -0.0016261298780437144 -0.0036733826664821149 0.0041593416585342857 -0.00093033848213669868 0.00047642044883941813 -0.0032513289274121548 0.002608475007611414 0.00062029248084991809 -0.00071602725262261873 0.0041796640555143818 0.0014398150870347877 -0.0028075358500383001 -0.0022619650533470355 -0.00016663452823270782 0.00098028626114501525 -0.0009735795015846432 -0.00088075632128459041 -0.03113903527952492 -0.0082549837414263461 0.0001850907512693502 -0.0035003283415761437 -0.081099213442474144 -0.0009057586355700174 0.0023975147653034381 8.7110491817401039e-05 0.0023474286993434654 0.013643343276272688 -0.060111548995989743 0.0018621047866954551
leaf_weight=39205.664283585284 3407.400669280818 16752.866229035477 3838.5999000921729 1312.5480122409353 27249.530925935003 35568.85840837007 13792.634282130428 24599.252486996338 5648.2322527071956 2818.6043144494615 4146.3782810131815 4260.9516800675337 361.46091058629099 4812.9582890118181 2135.9619699230243 7079.2184266764525 11123.508476709816 6167.0811921712302 10.730630014091728 38.218317020800896 7582.132882449936 1348.698381733906 1.7719567993190128 1137.5539401356655 5846.7933325343765 23598.435653068605 2323.7574074965378 67.861180438521842 2.4899673044346846 23448.071494679309
leaf_count=828691 66212 311033 89334 24023 582084 639608 331652 427337 97215 50408 75011 81105 5800 110211 41605 139304 233842 124515 200 1100 136720 30503 100 19001 143719 476546 41510 1005 300 410124
internal_value=0 -0.000447942 0.00165757 -0.00167755 -0.00013918 0.000210038 -0.00236469 0.00197365 0.000874984 0.00142091 0.00188072 0.0027235 -0.000475161 0.00012977 -0.00058685 0.000176341 -0.000661095 -0.000552248 -0.000831411 0.00403005 8.87541e-05 -0.0014569 -0.0114827 0.00162986 0.00209446 -0.000252692 0.000692339 0.00263883 -0.00326159 0.0016582
internal_weight=0 220185 59503.1 5151.15 189637 92986.9 30548 54351.9 49664.4 29684.8 14095.6 8447.32 96650.3 22722.6 15376.8 10563.9 73927.6 43322.5 2829.33 4186.37 16073 3484.66 39.9903 7345.81 6208.25 34721.9 9905.89 24667.1 13795.1 26855.5
internal_count=5519818 4451175 1068643 113357 3808190 1778968 642985 955286 894139 526944 254531 157316 2029222 490143 321623 211412 1539079 884829 50608 76211 302745 72108 1200 168520 149519 710388 178230 428342 331952 476336
is_linear=0
shrinkage=0.05


Tree=25
num_leaves=31
num_cat=0
split_feature=0 2 1 0 2 1 0 1 0 3 4 2 0 2 3 1 4 5 13 12 12 4 0 2 0 6 8 4 4 1
split_gain=81.9087 50.1989 24.7559 22.9636 9.22092 8.27905 7.86946 7.6211 7.41835 7.37285 6.618 6.51324 5.43461 10.7883 8.71742 6.34054 6.73784 5.9189 4.86303 5.08139 7.72719 3.85542 3.69595 3.61719 3.59829 3.54623 5.31531 3.53573 13.5074 10.6582
threshold=16.500000000000004 8.1666666666666696 22.500000000000004 53.500000000000007 0.58333333333333337 15.500000000000002 1.5000000000000002 16.500000000000004 22.500000000000004 0.49827586206896557 0.99122807017543868 85.500000000000014 3.5000000000000004 0.83333333333333337 0.35329985652797707 2.5000000000000004 0.37449186991869926 0.66248955722639946 3.1090199375949448 0.539194134414821 0.51054966227022514 0.059714795008912663 2.5000000000000004 11.583333333333334 124.50000000000001 0.097619047619047633 0.0050893550893550904 0.84561213434452875 0.49827586206896557 3.5000000000000004
decision_type=2 2 2 2 2 2 2 2 2 2 2 2 2 2 2 2 2 2 2 10 8 2 2 2 2 2 2 2 2 2
left_child=1 4 8 -4 6 21 10 12 11 -8 -1 23 13 17 -14 -16 -17 -6 19 20 -9 25 -19 -2 -10 -3 -27 28 -15 -29
right_child=2 5 3 -5 7 -7 9 18 24 -11 -12 -13 14 27 15 16 -18 22 -20 -21 -22 -23 -24 -25 -26 26 -28 29 -30 -31
leaf_value=-0.00094696181171769671 0.0013840487208448557 -0.0029088679086999953 -0.003623626961148302 0.0040411146815862893 -0.00052142165092108894 -0.0031694000521191646 -0.00086182088210953398 -0.01040108489671011 0.0023065435328192296 0.00021573242329142687 -0.0033560384062226375 -0.036247966130664576 -0.0003395001914629017 5.8504462087325761e-05 0.00036952500934437033 0.00052139112226095565 0.0026283780326466048 0.0064514207767977436 -0.050474731583752236 -0.002267732689363585 -0.096452222536393267 -0.0011771157313663115 -0.0002049453554159854 -0.0010525247114146494 0.0060932754831007491 -0.010478993117006926 -0.074809893347195705 -0.00040306146035526267 -0.0025030244681176843 0.0019267462989239891
leaf_weight=20437.752743466888 16385.759804694797 3523.0314629256973 3830.7791548104142 1311.8453879154258 645.01855100348621 14322.680714126538 26706.946953285253 164.78272494333214 35660.473051490408 39137.405463909556 3312.895621305448 11.645156884565948 15129.78028980337 18336.097507086626 14448.07337815866 6183.1374267372303 9821.2605340367954 1162.0865612741909 5.6038438733667126 888.55208057514392 2.6508118426427236 14016.338193906689 254.14950503996806 1679.2864828965539 638.58048932923703 14.367747118929403 4.1350211895478415 20207.224589625359 7154.6289509797643 6484.0473989927414
leaf_count=431348 293883 75708 89334 24023 13401 346055 548772 4301 620180 738118 74508 200 311653 344838 254741 106814 181119 25704 200 21204 100 251328 4101 30405 10618 400 200 435937 162818 117807
internal_value=0 -0.000440956 0.00164743 -0.00166841 -0.000133614 -0.00227728 -0.000502767 0.00019422 0.00196103 -0.000221331 -0.001283 0.00113345 0.000239035 -9.91535e-05 0.000641482 0.00112887 0.00181436 0.00344872 -0.00401987 -0.00377334 -0.0117634 -0.00154955 0.00525691 0.00115755 0.00237316 -0.00302353 -0.0248557 -0.000239299 -0.000660455 0.000162913
internal_weight=0 222363 59518.4 5142.62 190482 31880.6 89595 100887 54375.7 65844.4 23750.6 18076.7 99825.5 54243.3 45582.3 30452.5 16004.4 2061.25 1061.59 1055.99 167.434 17557.9 1416.24 18065 36299.1 3541.53 18.5028 52182 25490.7 26691.3
internal_count=5519818 4451175 1068643 113357 3777484 673691 1792746 1984738 955286 1286890 505856 324488 1958933 1104606 854327 542674 287933 43206 25805 25605 4401 327636 29805 324288 630798 76308 600 1061400 507656 553744
is_linear=0
shrinkage=0.05


Tree=26
num_leaves=31
num_cat=0
split_feature=0 2 1 0 2 1 0 0 2 3 2 5 1 0 3 4 1 4 4 0 1 3 13 2 2 14 14 6 0 2
split_gain=80.4185 48.8682 24.2222 22.3713 10.8738 7.98044 7.93972 6.92336 6.76368 6.34018 5.95046 6.37079 5.71504 5.60367 8.9545 5.37364 5.12337 11.5496 16.0986 7.98869 6.16577 4.56947 4.45084 4.39308 3.41969 3.30763 3.30431 3.27435 3.18397 3.16387
threshold=16.500000000000004 8.1666666666666696 22.500000000000004 53.500000000000007 0.58333333333333337 15.500000000000002 3.5000000000000004 28.500000000000004 11.583333333333334 0.43613053613053615 1.4166666666666667 0.55533154121863826 2.5000000000000004 1.5000000000000002 0.49827586206896557 0.4152394775036285 2.5000000000000004 0.88348416289592768 0.49827586206896557 2.5000000000000004 20.500000000000004 0.89564428312159727 0.69255060652820488 85.500000000000014 5.5833333333333348 0.65919720040063823 2.5041641782857647 0.43181818181818188 250.00000000000003 13.583333333333334
decision_type=2 2 2 2 2 2 2 2 2 2 2 2 2 2 2 2 2 2 2 2 2 2 2 2 2 2 2 2 2 2
left_child=1 4 7 29 13 25 10 8 -2 24 11 -6 -11 22 -15 -14 -12 18 -18 -19 -21 -17 -1 -10 -8 -3 -20 -7 -9 -4
right_child=2 5 3 -5 6 27 9 28 23 12 16 -13 15 14 -16 21 17 19 26 20 -22 -23 -24 -25 -26 -27 -28 -29 -30 -31
leaf_value=-0.00099165867534758891 0.001673959921360998 -0.002265539434549851 -0.0061084274577109443 0.0039871564012426202 -0.00050182273449391596 -0.0031360401837559008 0.00035067290973853397 0.0025330919401217993 -0.00077447486660897407 0.00043731151722484001 -0.0012180796829884071 0.0016528966791045194 0.00069434913186076854 -0.0010028956858958058 0.00018396286942983357 0.0038025860292957257 0.00020237261279222609 0.0019485848888420637 -0.0030783807439697282 -0.0021606141626769417 -0.085613519871761676 0.0014664331887427949 -0.0035082350849950789 -0.032320003871631912 -0.0013050807239843437 -0.00088961770749767198 -0.044198995624955967 0.059171423717001397 0.013384635685908053 -0.0027631094642437274
leaf_weight=21792.452717915439 26883.954940152678 8227.2456462131013 935.83615961160103 1310.927395083032 6102.5088336681947 14287.217235885 15923.86649737171 24580.733856903826 2813.1362986565582 12594.849080264292 15125.192154388875 7834.5591934291297 5512.4749065631622 26761.849733817959 39127.561380054671 4448.4061926292197 11673.876049718339 7966.7115622029523 5315.0548270616855 1279.1556110568636 2.217157350620254 3953.4138624480693 1911.033726987429 11.080020488239823 3877.8381915183272 9311.237179186719 4.8899082334246478 2.1088661616668096 67.783276865851803 2887.6307007617434
leaf_count=463049 476336 158127 22210 24023 126814 345955 317150 427337 50408 220834 314529 169920 94614 548772 738118 79311 215923 137206 124913 29703 100 74705 42807 200 78816 169509 200 100 1005 67124
internal_value=0 -0.000435668 0.00163335 -0.00164936 -0.00013371 -0.0022497 0.000220341 0.00194343 0.00142943 0.000703323 -0.000184101 0.000709427 0.00120895 -0.00053527 -0.000298095 0.00190742 -0.000485141 -6.26931e-05 -0.000836505 0.00135923 -0.00230501 0.00270333 -0.00119455 -0.000898235 2.64208e-05 -0.00153506 -0.00311618 -0.00312684 0.00256293 -0.00358191
internal_weight=0 223036 59491.1 5134.39 191208 31827.8 101615 54356.7 29708.2 46310.8 55304.2 13937.1 26509.1 89592.9 65889.4 13914.3 41367.1 26241.9 16993.8 9248.08 1281.37 8401.82 23703.5 2824.22 19801.7 17538.5 5319.94 14289.3 24648.5 3823.47
internal_count=5519818 4451175 1068643 113357 3777484 673691 1984738 955286 526944 865430 1119308 296734 469464 1792746 1286890 248630 822574 508045 341036 167009 29803 154016 505856 50608 395966 327636 125113 346055 428342 89334
is_linear=0
shrinkage=0.05


Tree=27
num_leaves=31
num_cat=0
split_feature=0 2 1 0 1 4 0 4 1 0 3 5 2 4 0 2 1 1 13 3 3 10 11 4 3 5 4 0 5 2
split_gain=80.5776 47.1801 23.8697 21.8589 10.2585 9.09551 8.81783 16.5957 7.80748 6.45596 10.9606 6.94595 21.0444 9.36815 6.19751 6.74039 5.88411 5.76061 6.91711 4.80954 4.79219 4.67219 10.1257 3.99622 3.88668 3.86927 3.84351 4.00555 3.65309 3.60508
threshold=16.500000000000004 8.1666666666666696 22.500000000000004 51.500000000000007 2.5000000000000004 0.84561213434452875 2.5000000000000004 0.49827586206896557 15.500000000000002 2.5000000000000004 0.45867486338797819 0.66248955722639946 1.5833333333333337 0.49827586206896557 28.500000000000004 11.583333333333334 1.0000000180025095e-35 16.500000000000004 3.1090199375949448 0.93440860215053767 0.35329985652797707 0.22048611111111113 0.09726286096768029 0.49827586206896557 0.43613053613053615 0.92893217893217905 0.37449186991869926 12.500000000000002 0.66666666666666685 85.500000000000014
decision_type=2 2 2 2 2 2 2 2 2 2 2 2 2 2 2 2 2 2 2 2 2 2 2 2 2 2 2 2 2 2
left_child=1 4 14 -4 9 6 7 -6 -3 11 16 13 23 -1 15 -2 -11 24 21 -12 -7 25 -23 -13 26 -19 -8 -28 -14 -17
right_child=2 8 3 -5 5 20 17 -9 -10 10 19 12 28 -15 -16 29 -18 18 -20 -21 -22 22 -24 -25 -26 -27 27 -29 -30 -31
